0.0217094 0.663887 -0.382866 0.695569 -0.519478 -0.57363 0.593864 0.724759 0.425895 0.408133 0.592889 -0.0177365 -0.807975 0.601488 0.538934 -0.42735 -0.149121 -0.709146 0.575204 0.184797 -0.455395 -0.956076 0.387268 -0.101788 0.179512 0.573643 -0.886746 -0.647633 0.400988 0.252346 -0.520955 -0.556895 -0.066605 0.138674 -0.879277 0.419743 0.530135 0.667241 0.119876 -0.0106872 0.110635 -0.239827 0.924665 0.315403 -0.786736 0.444625 0.876421 0.177391 0.795325 0.50121 -0.678771 -0.70118 0.570108 0.754027 0.248984 -0.215469 0.316707 0.321963 0.127862 -0.306001 -0.433514 0.59963 0.185332 0.511125 -0.28026 0.313031 -0.0768371 -0.67163 -0.0223339 1.04383 0.321627 -0.908711 -0.310843 0.182661 0.379178 -0.0573233 -0.307663 0.282726 -0.891497 -0.545214 -0.238979 -0.593161 -0.194387 -0.655679 -0.799064 0.977609 0.104745 0.491183 0.246159 -0.763107 -0.778452 0.895081 0.876463 0.392528 0.369196 -0.371663 -0.352123 -0.760363 -0.0925723 0.609864 -0.693985 -0.787949 0.723983 -0.0457728 0.41156 0.0834399 0.888677 -0.908813 -0.615815 1.03033 -0.471475 0.177442 -0.550913 0.252847 0.48187 -0.355117 0.206842 -0.410884 -0.826323 -0.533145 
0.660816 0.0762792 -2.93457 1.09293 4.28058 1.80432 0.770091 -2.48518 -0.465442 -2.74754 
-0.212037 -0.632058 -0.620223 -0.313289 0.767752 0.701425 0.246052 -0.599495 0.965035 -0.697814 -0.929443 -0.792374 -0.628433 0.589917 0.337643 0.892623 0.035975 0.0276566 0.787235 0.0221443 0.38426 -0.684933 -0.808857 0.916665 0.921855 0.482672 -0.950505 0.0860215 -1.18957 -0.514063 0.428163 0.217048 -0.276758 0.77576 0.841787 -0.501136 0.488464 0.164099 -0.142478 0.424037 0.302065 -0.104022 0.609706 0.803824 -0.290761 -0.0219365 0.60352 0.36068 1.04114 0.495044 -0.43241 0.0757461 0.832717 -0.209296 -0.368336 0.634184 -0.305069 -0.0544903 -0.433179 0.0342723 -0.274054 0.762165 -1.11591 0.662522 1.13621 -0.303206 -0.588257 -0.170329 0.265878 0.571203 -0.341687 -0.224423 0.936976 -0.630686 -0.375937 -0.398649 0.259008 -0.79851 0.952464 0.206602 1.27734 -0.646062 -1.30155 -0.193626 1.06368 0.305313 1.09712 -0.803749 -0.382633 1.07995 -0.181597 0.0848524 0.721549 1.29615 -1.13059 1.62847 0.761706 -0.00496685 -0.664618 -0.992918 0.164469 0.561385 2.09993 1.04959 0.994994 -1.84514 -1.13953 0.000154993 0.175901 -0.507582 -0.793847 -0.615482 -0.0822171 -0.517956 -0.875122 -0.606464 0.32569 0.383098 -0.498654 -0.0728142 -0.24803 1.16495 1.92583 -1.17509 0.771824 -0.829642 -0.824396 1.07458 -0.80272 -0.065302 0.917717 -0.747442 -0.417117 0.863036 -1.04016 0.785155 -0.898432 0.0114031 0.541702 0.0416757 0.503574 0.661739 0.143514 -0.521023 -0.819342 0.342086 -0.193918 0.431992 -0.248276 0.296446 -0.592536 -0.988217 0.0182313 -0.924849 0.164968 -0.691782 -0.800334 0.705958 0.209618 0.109605 -0.290837 0.0606517 0.663745 0.273216 0.790998 -0.66228 -0.264165 -0.0199824 0.692096 1.36752 -0.864758 0.158887 1.20147 0.331145 0.230971 0.232773 -0.41497 -0.564635 0.0343259 0.210496 0.665645 0.357071 0.369854 -0.164283 0.47826 -0.461843 0.00353061 0.69991 -0.69273 -0.758729 -0.467531 1.49631 -0.385093 -0.454709 0.338169 -0.10145 0.131903 0.61964 -0.124081 0.333298 0.416138 0.83589 0.863608 -0.149162 0.218959 0.473402 -0.583569 0.801942 0.82658 0.421785 0.186902 0.509687 -0.145196 -0.416301 -0.621307 -0.621917 0.0874951 0.285548 -0.915846 0.32927 0.948068 -0.0178454 -0.658335 0.0747554 0.57081 0.638074 0.716598 -0.406139 0.692566 0.208275 0.57024 -0.0104304 0.0282734 0.477907 0.82307 -0.791883 -0.0456905 -0.754104 -0.968547 -0.231735 1.44203 -1.09563 -0.996029 -0.976044 1.02913 0.000377753 0.799672 -0.44559 1.14946 0.0405886 0.44666 -0.0179256 0.421043 -0.0136508 -0.730807 1.1792 -0.362849 1.22709 -1.36205 -0.537449 -0.328773 1.98043 -0.0706689 -0.614514 -0.111677 0.21764 0.384873 -1.29011 0.332791 -0.60894 0.0669926 0.349376 0.54645 0.342779 0.916251 0.379413 0.912057 -0.129008 -0.699118 0.784902 0.901445 -0.413655 0.146974 0.792699 0.631066 0.607173 0.324891 -0.426906 0.451971 0.587128 0.00475631 -0.95518 -0.448915 0.133801 -0.758303 -0.025859 -0.749538 0.0874305 0.623774 1.35259 0.349726 -0.802212 0.249474 -0.492853 0.567072 -1.00092 -0.840863 0.609666 0.873533 0.300188 -0.282423 -0.0509816 -0.171198 -0.87709 0.725514 -0.148023 2.4987 -0.9266 1.02278 0.452947 0.108336 -0.581773 0.673998 -0.33153 -0.401859 -1.13647 0.113979 -0.0710553 0.660643 1.00626 0.249457 -0.103781 -0.992178 -0.328542 -0.416808 1.07319 0.0283464 1.12157 -0.628628 0.183805 -0.928979 -0.880834 0.114804 0.064329 -0.458253 -0.24156 0.69734 -0.569751 0.740496 -0.122833 1.27025 -1.02164 0.643786 1.41765 -1.27899 -0.163354 -0.635971 -0.178961 0.712832 0.198448 0.257459 -0.298039 -0.569602 0.171834 -0.0363 0.829446 -0.265318 -0.599369 0.43944 0.562881 -0.170188 0.285438 0.960051 -0.260978 0.620842 -1.1325 1.36634 -1.02846 -0.236356 -0.0904897 0.0708274 -0.28299 0.648557 -0.641211 -0.647501 -0.773953 -0.243376 -0.257292 -0.0678576 -0.602506 -0.474797 -0.669198 0.112302 -0.0945068 0.549542 -0.836279 -0.20361 -0.769247 -0.480586 -0.792349 0.870081 -0.810661 0.661127 0.644335 0.00344411 -0.78432 0.905911 -0.434018 -0.582166 -0.412196 0.928132 0.521917 0.172707 0.579039 0.832278 0.502758 0.42984 -0.311121 -0.594907 -0.133105 1.0938 -0.539385 -0.500676 -0.497668 0.718086 -0.69239 -0.893803 -0.0812242 -0.188888 -0.256549 -0.268788 -0.254949 0.0548517 -0.596562 -0.605235 -0.96878 -0.393242 -0.702266 -0.409104 0.0353018 -0.135409 -0.520092 -0.413959 -0.925473 -0.931626 -0.430353 0.64464 0.534915 0.234129 0.856368 -0.493932 -0.922519 -1.47764 -0.0287563 0.0693635 0.826879 -0.369585 0.13263 -0.785221 -0.433409 0.688846 0.392512 1.17405 -0.29388 -1.40808 -0.46782 1.35064 -1.0345 -0.567436 -0.49038 0.738041 0.290751 0.875948 -0.678368 0.379216 0.930428 -0.230665 -0.0149869 0.496547 -0.982285 -0.0866698 0.851994 -0.717827 0.608785 0.348571 -0.181675 -0.950549 0.329719 0.633072 -0.05461 -0.656127 0.449412 -0.521722 0.9345 -0.785864 -0.244919 -0.860049 0.0347841 0.389514 -0.541006 -0.553108 0.0992183 0.686981 -0.606053 0.304673 0.205203 -0.662701 -0.69556 -0.954851 0.630306 -0.750665 -0.0110803 0.592814 -0.443523 -0.392891 -0.099519 0.333104 -0.380182 -0.734198 0.0128953 0.387278 -0.513429 -0.293892 -1.01512 0.307244 -0.533424 0.341671 -0.569022 0.155511 -0.691029 1.22151 -1.07988 -0.0736483 0.0774195 -0.88851 -0.286162 0.310904 -0.078322 0.0649615 1.13028 -0.57049 0.363443 -0.0468304 -0.950319 0.970015 0.551332 -0.0734212 0.188683 -0.764648 0.159043 -0.701215 0.79218 0.71632 -0.307305 -0.922985 -0.655286 0.281002 -0.0282449 -0.0370903 -0.113141 0.361031 -0.941578 -0.0577008 -0.171041 -0.0845938 0.375854 0.724328 -0.251671 -0.993578 -0.156677 -0.753745 -0.801165 -0.397562 -0.0403492 0.0986324 0.14472 0.62558 -0.251983 -0.254241 0.947782 -0.492422 0.75303 0.24248 -0.741935 -0.516345 0.318937 -0.41894 0.713487 -0.71436 0.531577 -1.00053 0.97716 0.523546 0.0296174 -0.0047048 0.262672 -0.50951 -1.60244 1.92672 -0.796076 0.179527 0.947143 0.596676 0.104083 0.52927 0.898058 0.638751 -0.0110427 -0.0335766 0.0653356 -1.20917 1.33839 -0.0852637 0.422286 1.1001 0.00555708 0.230133 -0.298395 0.237025 -0.294734 -1.53788 1.07604 -0.39751 0.694622 -0.959872 1.43765 0.253572 -1.53927 1.66659 -0.676786 0.0394214 -0.286897 0.385793 -0.570301 -0.976982 0.104257 -0.751553 0.520095 -0.892641 0.400552 -1.04699 -1.01593 0.908485 1.09074 -0.512927 -0.453496 -1.94955 1.42152 0.86303 -0.204668 -1.12081 0.663079 -0.657627 2.22967 -0.00820521 1.26423 0.184566 -0.0865891 0.234228 0.292154 -0.287622 -0.00976455 0.525399 -0.896277 0.448247 0.5233 0.189857 0.628947 0.0769557 0.268024 0.103356 0.573403 0.80273 -0.774694 -0.161526 -0.884312 0.0684039 0.0308245 0.567585 -0.355912 -0.572728 -0.728179 -0.773205 0.0464374 -0.917798 0.48683 -0.230185 0.197526 -0.446966 -0.165707 -0.940609 0.24733 0.782722 0.581236 0.362555 0.371116 0.123385 -0.515174 0.0197144 -0.797221 0.72516 -0.855727 0.598194 0.674453 -0.68939 -0.418301 0.825738 0.268946 0.662187 0.48021 0.796713 -1.01021 0.790794 0.917502 0.159367 0.828743 0.251312 -0.782328 0.00800454 0.646645 0.136098 0.0549877 -0.0779016 0.0775125 -0.389112 -0.765254 -0.567743 0.723202 -0.270667 0.449349 0.739856 -0.537968 0.597136 0.656658 -0.72834 0.72864 -0.745034 -0.905155 0.0530188 0.73603 0.326278 -0.290656 0.598355 0.612636 0.00200553 0.258523 0.0602932 0.728538 0.248727 -0.796946 0.435482 -0.631428 0.134969 -0.417394 0.693225 0.968021 -0.205799 0.623549 0.556705 0.409181 0.299569 0.476838 0.949121 -0.166763 0.185084 -0.80904 -0.444581 0.301403 -0.788302 0.548272 -0.510159 0.430905 -0.245825 -0.320383 -0.317382 1.34632 -1.0235 -0.626782 -0.218189 0.575481 -0.321256 -0.287677 0.921161 -0.066662 -0.0419275 -0.0961367 0.202321 1.55749 0.096325 -0.384053 0.621887 -1.02784 -0.644089 -0.119008 -0.806281 1.35594 0.702506 0.022572 0.410361 1.271 0.894949 -0.797341 -0.0604673 0.487044 0.740785 -0.710889 -1.11886 0.12399 -0.251433 0.88521 -0.479059 -0.0657529 -0.548747 -0.977425 -0.153552 0.35681 -0.0580952 -0.849967 0.727649 0.729695 0.205109 -0.11901 -0.795584 0.57519 -0.474423 0.129006 -0.10538 0.642739 -0.272753 0.716508 0.506468 1.0728 -0.401784 -0.18138 0.204913 -0.0907528 0.831742 -1.03724 0.0521795 -1.63536 0.507579 -0.182078 0.0897228 -0.663187 -0.340122 1.70169 1.02408 0.410495 1.25831 0.204292 0.788631 -0.0859638 -1.02697 0.336492 -0.160337 0.120678 0.464152 0.480654 -0.691373 0.331776 0.571781 -0.806545 0.23884 0.645222 0.33099 -0.409469 -0.174723 -0.126929 -0.407019 0.14715 0.0222581 -0.437959 1.20947 0.181383 -0.501392 -1.13382 -0.516119 0.286261 -0.925452 -0.775338 -0.949838 -1.24957 -0.515349 0.703144 1.18905 1.00197 -0.325425 0.0586964 -0.059342 1.28156 -1.60657 -0.45919 0.983754 1.59516 -1.33936 0.287389 -1.08704 0.229356 0.355896 0.308956 -0.28092 0.245513 0.169712 -0.361852 0.767672 0.855077 0.325418 -0.758797 -0.567167 0.805191 -0.438846 -0.38041 0.794296 -0.757561 -0.164494 0.979136 -0.84581 0.929878 -0.163719 0.701531 -0.464789 1.12361 -0.078628 0.518242 -0.268889 -0.287047 -0.745888 0.222576 0.331779 0.0743045 0.553487 0.74922 -0.999437 -0.260785 -0.559418 0.761456 -0.456526 0.689942 -0.976036 0.0258849 0.508778 -0.287095 0.448896 0.503207 -0.0588385 -0.64727 0.440611 0.0137007 -0.698432 -0.814186 -0.846713 1.13053 0.206543 0.435619 0.540812 1.05556 0.384348 -0.1394 -0.843005 0.644483 -0.0483696 -0.691469 0.670875 -0.0438153 0.0443286 -0.948177 -0.271107 0.631516 0.75719 -0.257933 -0.365011 0.252176 0.425243 -0.770542 -0.264719 -0.594519 -0.512592 -0.835049 0.373741 -0.25893 -0.596455 -0.916554 -0.276658 0.683991 0.507113 -0.777925 0.610552 -0.592132 -0.568621 -0.616183 -1.01973 -0.0299059 -0.421119 -0.755723 0.651605 0.253352 -1.60288 0.857194 -0.332078 1.1562 0.806176 0.994222 0.0910285 0.241076 -0.808083 0.804393 0.588152 -0.41143 -0.899124 0.00114129 0.446059 -0.449419 -0.212621 -0.579438 -0.802921 -0.0300046 -1.22391 0.0353118 0.257216 0.134146 -1.3044 0.793456 -0.83557 -0.644155 0.428575 -1.24751 -1.17395 1.46405 0.733784 1.33392 0.449849 -0.0389385 0.477514 0.601431 -1.06843 0.688407 -0.319567 -1.2635 -0.400901 -0.47998 0.15794 0.929664 -0.219252 -0.770809 -0.938293 -0.0281711 -0.195793 -0.699652 -0.258671 0.804924 0.264764 -0.418061 -0.296834 0.150874 0.675036 0.412635 1.04995 -1.01537 0.0519534 -1.46424 -0.922291 0.332661 -0.672289 0.940365 0.72327 -0.139751 0.927364 0.97898 0.00680503 -0.498446 0.0707801 -0.998127 -0.151293 -0.494121 -1.17745 -0.814222 -1.26434 0.579426 -0.0985191 -0.00219378 0.465015 0.20955 -0.168201 -0.561533 0.227448 1.49302 -0.0715624 -1.43924 1.2259 -0.553217 -0.131385 1.39551 -1.18268 1.63135 0.396579 0.66695 -1.29654 1.71298 0.780179 0.793527 -0.932459 -0.827986 0.899408 -0.517708 0.316948 -0.685583 -0.0907785 0.3246 0.480642 0.6633 -2.02078 -0.0339515 0.569445 0.646993 -0.594022 0.511734 0.047364 0.562874 0.0199776 0.051996 -0.674072 -0.445584 -0.47971 -0.502708 -0.529417 -0.833009 -0.638324 0.220337 0.684821 -0.751791 -0.226405 0.249801 -0.681593 0.0757145 -1.31588 0.683248 1.31854 -0.0549542 -0.72795 0.730325 -0.867398 0.294438 -0.0612156 0.442879 0.776307 0.407251 0.322217 -1.29677 -0.47612 1.20818 0.159236 0.76779 -0.73786 0.67176 -0.689354 -0.219267 0.80041 -0.369456 0.977845 0.464381 -0.0493012 -0.0125826 0.289649 0.252578 0.881082 0.370626 0.0345542 0.104347 -0.486689 -0.923269 0.816056 0.356273 0.237065 0.0247729 0.704563 -0.658621 -0.0532093 -0.600887 -0.364351 -0.641144 -0.73348 0.653398 -1.49679 -1.39011 1.72639 -1.23229 1.14411 1.55739 -1.07734 -0.0277687 -0.283876 0.952428 -0.829897 0.943441 0.279576 -0.862651 0.364025 -0.704578 0.173731 0.905189 
0.962908 -0.829726 -0.530935 -0.102659 -0.257643 0.0374894 -0.934158 -0.991249 -0.215809 -0.577035 0.959553 -0.214643 -0.45142 0.0759082 -0.572103 0.891698 -0.559637 -0.693646 0.978074 -0.624344 0.120075 0.400246 0.0269035 0.194553 0.231717 -0.356633 0.535114 0.403483 -0.115878 -0.0526666 0.679469 -0.470706 0.535998 -0.838655 0.259139 -0.322416 -0.480458 0.406727 0.872571 -1.00036 0.11488 -0.146325 -0.634137 0.638236 0.235808 -0.756414 0.27574 0.0212515 -0.263079 0.00817336 -0.364379 -0.642217 -0.547455 -0.207397 -0.892541 0.838669 -0.255968 -0.953044 -0.513198 0.809147 -0.886496 0.961875 -0.680696 -0.574206 0.563254 -0.339742 0.704495 -0.959374 0.647563 0.97792 0.726892 0.25381 -0.0604586 -0.357869 -0.885487 -0.816295 -0.346695 0.634475 -0.412489 0.702271 0.375099 0.590347 0.765563 0.443987 0.102057 -0.733829 -0.203679 -0.279236 0.558626 -0.108141 -0.104834 -0.831583 -0.536583 0.643432 0.580252 -0.212736 0.445975 -0.157618 0.319006 0.609634 -0.61175 -0.107124 0.959935 -0.582415 0.0494489 -0.590272 -0.0137773 0.676426 0.688492 -0.304621 0.324671 -0.0943364 -0.873931 -0.744753 -0.169042 -0.0791184 0.920553 -0.705505 -0.67655 -0.77816 -0.208877 0.755091 -0.15324 0.327294 -0.183983 0.430857 -0.907955 0.16559 -0.795038 -0.660839 -0.560162 -0.0655674 -0.0509683 -0.353886 -0.817826 0.789954 -0.208788 -0.255577 0.0275154 0.380788 0.800976 0.114781 0.827736 -0.221426 0.858195 0.565535 0.851381 -0.112563 -0.137805 -0.468862 -0.629757 -0.846422 -0.805033 -0.973895 -0.10037 0.652557 -0.599298 0.412981 0.322898 -0.186851 0.59807 0.963374 -0.42964 0.910782 0.200396 -0.905599 -0.0661505 -0.396543 0.42818 0.527776 0.352481 -0.548926 0.198574 -0.66878 0.208374 0.486598 0.510571 -0.303182 0.545714 -0.587334 -0.937069 0.188609 -0.810263 0.55383 -0.906806 -0.0775124 -0.419802 0.639596 0.716268 -0.0612741 0.968065 0.0929966 0.783438 -0.884239 0.400217 0.831799 -0.0705605 -0.406781 -0.368408 0.275708 -0.0551686 -0.10239 0.556669 -0.643534 0.723529 -0.0862903 0.21064 -0.664701 -0.468601 -0.55188 -0.681717 -0.864905 -0.296394 -0.111246 -0.274153 -0.336533 -0.146555 0.561401 -0.0997869 -0.330528 0.954715 0.452888 0.240584 0.0600741 0.768594 -0.0712107 0.548208 -0.0564423 -0.591416 0.125132 -0.274513 -0.644921 0.516617 -0.626758 0.0868535 -0.955673 -0.971672 -0.20386 -0.944328 -0.553535 0.933135 -0.0861948 -0.380034 -1.00986 -0.25298 -0.917812 -0.6171 0.790243 -0.101405 0.553602 0.0826025 0.920493 -0.203735 -0.0418356 -0.389067 -0.412856 -0.681499 -0.583491 0.950799 0.220069 -0.667701 -0.621078 0.0689549 -0.969126 -0.899375 0.131583 -0.00709277 -0.072737 0.659694 -0.391305 -0.831243 0.56623 -0.0928074 -0.346759 -0.911089 0.932966 0.0916518 0.108046 -0.500256 0.143177 0.818744 -0.549873 0.603616 0.479139 -0.806441 -0.0349479 -0.364539 -0.897246 0.0384993 -0.281492 0.67613 0.411197 -0.483707 0.708093 -0.350333 0.362642 -0.374548 0.320534 -0.00518097 0.157962 -0.63211 -0.252795 -0.874656 -0.666163 0.780899 -1.02091 -0.260992 0.32389 0.502726 0.619427 -0.637966 -0.643746 0.306059 -0.196981 0.705996 0.0177881 0.756409 -0.388614 0.813392 -0.237804 -0.109591 -0.0926697 0.854733 -0.51191 -0.0416255 0.358253 -0.850774 -0.97576 -0.926397 0.924486 -0.548486 -0.749961 0.828781 0.381475 0.549072 -0.967816 -0.936788 -0.736213 -0.494001 0.436058 -0.122505 -0.684093 -0.984751 -0.809407 0.462965 0.498849 -0.0191781 -0.620668 -0.203953 0.525473 -0.839762 -0.430366 0.229096 -0.0765461 -0.483224 -0.500937 -0.519148 0.775958 0.814699 0.883062 0.947674 0.457903 0.652755 -0.873984 -0.418706 -0.669923 -0.87054 -0.704461 0.907014 -0.0450218 -0.198669 0.471458 -0.094559 0.426813 0.403637 0.76649 -0.370596 0.403426 0.0601167 0.790619 0.741189 0.84561 0.387051 -0.215647 -1.01508 0.650719 -0.855709 -0.876024 0.440681 0.390352 -0.360003 0.730011 0.331819 0.752301 -0.723733 0.65214 0.498269 -0.914796 0.664947 -0.904042 0.359468 -0.0873653 -0.268857 0.0186728 0.23296 0.89548 -0.704356 -0.657669 0.507732 0.322982 -0.17169 0.613313 0.503058 0.24673 -0.0026396 0.446867 -0.020678 -0.587907 -0.560604 -0.123991 -0.334695 0.632457 -0.624081 -0.264056 0.285747 0.704936 0.353001 -0.265609 0.612144 0.580484 0.96387 0.525749 -0.349777 -0.912154 0.253392 -0.956951 0.802591 -0.634774 -0.046214 0.265629 -0.495373 -0.381756 0.545489 0.279303 -0.39963 -0.382944 -0.680433 -0.910179 0.0926354 -0.576287 -0.992698 0.914003 -0.634363 0.0407257 0.125616 -0.853172 0.132758 -0.894141 0.867716 0.874631 -0.57839 -0.368862 0.473953 -0.0838212 -0.75024 -0.276238 -0.422639 0.743107 0.148081 0.096883 0.756554 -0.32525 0.162256 0.621108 0.749798 0.885907 -0.517877 -0.63845 0.890611 -0.174928 0.195222 0.0159027 0.347292 0.354602 0.319461 0.472346 -0.340201 -0.727449 0.177541 0.927832 -0.0324925 0.227638 0.834097 -0.60576 0.852396 0.232145 0.271864 -0.818093 -0.900771 -0.268353 0.170996 0.549926 0.679121 0.723501 0.720389 0.68866 0.852367 -0.992161 -0.609026 0.323519 0.689588 -0.133245 0.204729 0.666449 -0.612138 0.82505 -0.957443 -0.883998 -0.630729 0.55316 -0.788626 0.217457 0.344535 -0.00823099 -0.405855 -0.210026 0.39708 0.125644 0.330417 -0.346137 -0.700803 -0.874686 -0.171353 0.654152 0.440315 -0.207915 0.857974 -0.770178 -0.92581 0.186828 0.181841 0.458883 -0.00327114 0.0115974 0.821374 -0.14223 0.904407 -0.18659 -0.950178 -0.00100149 -0.282117 -0.233854 0.458669 -0.0318149 0.468863 -0.853931 0.0269785 -0.519915 0.311324 0.013145 -0.138043 -0.54071 0.943466 0.0187969 0.657044 -0.220765 0.948908 0.871535 -0.47434 0.0532078 -0.399089 0.737516 -0.557314 0.473655 0.564965 0.495395 0.46055 0.287667 -0.188486 0.475584 -0.0800377 0.0594344 -0.347707 -0.645393 -0.606023 -0.633011 -0.158523 0.0979562 -0.715607 0.0465216 0.784957 -0.3012 -0.219556 -0.784501 0.0437419 -0.283528 0.259757 0.718078 -0.0124763 0.429011 -0.816726 0.876554 0.502856 0.232402 -0.312211 -0.247062 0.385171 -0.900562 -0.0891325 0.911749 -0.576495 -0.85646 0.328799 -0.380576 0.0227855 0.281119 -0.729954 -0.576443 0.906013 0.378588 -0.221912 -0.636676 0.311028 0.905176 -0.645093 0.751617 0.361338 0.12448 0.814833 -0.548015 0.0528273 0.154425 -0.875986 -0.595309 0.903335 0.804868 -0.109313 -0.926867 0.624145 0.0445841 0.816533 -0.386353 0.0993132 0.461521 -1.00532 -0.425891 -0.353646 -0.36389 -0.733685 -0.720896 0.240662 -0.918984 -0.369129 -0.505713 -0.540943 -0.735436 -0.499357 -0.230159 0.307866 -0.582195 0.538097 0.539227 -0.277876 -0.865048 0.597198 -0.81297 0.400947 0.831553 -0.741708 0.152135 0.374354 0.113881 -0.509161 -0.958427 0.976855 0.678843 -0.949261 0.0712394 -0.146577 0.281313 0.935948 0.012484 -0.474992 0.525383 -0.582304 0.289915 -0.523037 -0.444841 -0.976472 0.0478212 -0.108008 0.977233 -0.0144606 -0.687467 -0.48765 -0.504179 0.875473 -0.015823 0.67519 -0.771493 0.97633 0.866015 -0.276667 -0.945623 -0.637981 -0.0713303 0.571591 -0.250548 0.788691 -0.902488 -0.121471 -0.397258 -0.666761 -0.101112 0.070438 -0.4015 -0.551449 0.816168 0.065673 0.88761 0.239085 -0.89844 -0.24731 0.699176 -0.190549 -0.226156 -0.772459 0.0660715 0.430733 0.940452 -0.00135515 -1.00442 0.146704 -0.123288 0.868984 -0.122621 -0.35303 0.503622 0.0967272 0.881431 -0.241425 -0.452966 0.352497 0.0173055 -0.598064 0.313221 -0.546139 -0.00576509 -0.133913 0.135453 0.186537 -0.510445 0.0122068 -0.705515 0.629494 0.812768 -0.420821 0.263114 0.0145473 -0.791672 -0.309834 0.444902 -0.234908 0.82382 0.577422 0.736809 -0.53246 0.130126 -0.876292 -0.29947 0.21876 -0.668169 -0.708796 -0.997942 -0.410213 -0.199157 0.132419 -0.172989 -0.507254 -0.579774 -0.466972 -0.0103827 -0.550471 0.0746441 -0.902658 0.275177 -0.498489 -0.897196 0.221003 -0.0362504 0.812937 0.105911 0.332484 -0.221545 -0.0126956 -0.608798 0.0804858 -0.302894 -0.160226 -0.413533 -0.885696 0.127132 0.116099 0.837714 -0.637783 -0.626069 -0.957625 0.88015 0.130693 0.514667 0.0293348 -0.63962 -0.514591 0.814445 -0.153074 -0.861042 0.592623 0.449437 0.965827 0.32739 0.555188 0.283585 -0.613639 0.593558 0.347639 -0.810706 -0.253376 0.2757 -0.632492 0.876119 0.22608 0.152956 0.662943 -0.777031 -0.266262 -0.515107 -0.368889 0.672188 -0.397215 -0.358019 -0.182481 0.768013 -0.145576 -0.9646 -0.0715792 0.117822 -0.93523 -0.835131 -0.695123 0.335363 -0.33388 0.175402 0.791178 -0.323146 -0.318861 -0.969509 0.71391 -0.832004 -0.963619 0.229591 0.87995 -0.843411 0.847755 -0.643088 0.147019 0.896968 0.926962 -0.299614 0.0574086 0.429748 0.8275 -0.246576 0.528478 0.0472269 -0.323429 -0.106739 0.583037 -0.0759788 -0.715752 -0.85263 -0.120359 -0.477214 -0.0814023 0.841402 0.511137 -0.614571 -0.477503 0.199589 0.947936 -0.423254 0.762414 0.0118382 -0.912272 0.616443 0.92589 0.913338 -0.705443 -0.34151 -0.423189 -0.929771 0.850687 -0.894827 0.531932 -0.778729 0.200809 0.0620436 0.0523475 0.355046 -0.0864278 -0.316982 0.513445 -0.812502 0.0834948 0.833332 0.141554 0.672325 -0.11759 0.655598 -0.342492 0.378573 -0.494482 0.796845 -0.108603 -0.300592 0.452373 0.564803 -0.20649 -0.699814 0.434837 0.361932 -0.604073 -0.411591 0.503256 0.242425 -0.135012 0.894187 -0.726944 -0.491241 0.255484 -0.445857 0.0845522 -0.617793 -0.130748 0.886375 0.075628 0.84563 0.3794 -0.742853 -0.540364 -0.0327548 -0.814907 0.489854 0.863872 0.890294 0.123666 -0.0780542 -0.845198 0.283965 -0.28781 0.386042 -0.636249 -0.140547 -0.947494 -0.712092 0.0585962 0.708485 -0.117835 -0.550793 0.386847 -0.554686 -0.0517446 -0.281578 0.884553 0.41138 0.906473 0.0908276 -0.0565454 0.769554 -0.610213 -0.93427 -0.0358134 0.862554 0.920692 0.348886 0.471141 -0.707141 0.0127024 -0.76126 -0.517547 -0.616454 -0.245755 -0.193687 0.215834 0.905669 0.517951 -0.598082 0.750929 0.0675614 0.834179 -0.0841062 0.656347 -0.831163 0.903126 -0.493987 0.065097 0.24786 0.780622 0.414513 0.148119 -0.103022 0.849274 -0.79344 -0.155334 0.362014 -0.00818045 0.374926 0.499 -0.411035 -0.95136 -0.361829 -0.775517 -0.980058 -0.942579 -0.91679 0.61452 -0.366044 -0.682466 0.398176 -0.659528 0.23559 0.61771 0.707756 -0.0906263 0.834017 -0.379465 0.161258 -0.523864 -0.0710528 -0.306438 0.557432 0.215517 0.2206 0.146254 -0.814921 -0.974029 -0.346026 0.0853703 -0.623315 0.588435 -0.230285 -0.0561586 -0.0323355 -0.88571 -0.100335 -0.898406 -0.14212 -0.103865 0.563005 -0.858089 0.460557 -0.761479 0.0720496 0.383645 0.102347 -0.472789 -0.476641 -0.885055 -0.959539 -0.650108 -0.871301 -0.54561 0.253142 -0.230903 -0.465334 -0.740129 -0.552307 -0.404168 0.702896 -0.77716 -0.463647 -0.357447 0.66112 0.635441 -0.383884 0.304668 -0.822947 -0.283371 0.854986 -0.726556 -0.675359 -0.0664233 0.236605 0.842909 -0.949174 -0.343753 0.534539 -0.285482 -0.550768 -0.0938738 -0.36101 -0.742249 -0.28631 -0.386737 0.512087 -0.845919 0.116777 -0.296887 -0.12414 0.816292 0.784882 -0.268737 0.995493 -0.550581 0.119674 -0.190147 -0.680556 -0.586613 -0.629078 -0.224565 -0.942673 -0.491485 0.667533 0.144318 -0.920146 0.377484 0.178025 0.901741 -0.130246 0.26295 -0.314436 -0.77017 0.840645 0.545261 0.805878 0.980076 0.613696 0.728559 0.377877 -0.513455 0.576648 -0.220836 0.820349 -0.463086 0.825146 0.602475 0.845776 0.489629 0.259805 0.0855619 -0.355232 0.544674 0.202675 0.7632 0.936138 0.783101 -0.257606 -0.787937 -0.00107198 -0.929894 0.187243 0.241592 -0.943772 0.0759124 -1.00845 -1.00004 0.74435 0.0886456 0.930642 -0.229592 0.222851 -0.557186 0.560289 -0.103927 0.741689 -0.389549 0.707178 0.355579 0.418376 -0.367138 -0.284682 -0.42363 -0.263696 0.950397 -0.218529 -0.00383431 -1.018 0.965094 -0.319197 -0.17376 -0.365468 -0.71972 0.699148 0.824437 -0.679223 0.660221 -0.621001 -0.0360175 0.325976 0.0502771 -0.836968 0.0914812 -0.411267 0.141562 0.842734 0.0451351 0.39131 0.443738 -0.951112 0.0776274 -0.530085 -0.131416 -0.233946 0.278249 -0.390214 0.320583 -0.276738 -0.223812 -0.227277 -0.439144 0.951673 0.105659 -0.927746 0.563534 0.0527457 -0.22594 0.207765 -0.607854 -0.766681 -0.218687 0.900339 0.0159774 -1.01458 -0.468855 0.0934726 0.381101 -0.399113 -0.757207 -0.651369 -0.995564 0.726955 -0.05345 -0.667579 0.173293 0.06378 -0.888808 -0.0632171 -0.322891 -0.418979 0.504617 0.651359 -0.540124 -0.745405 0.300674 0.174399 0.961029 -0.800261 -0.220553 -0.564113 0.0197022 0.759812 -0.945103 -0.693119 0.0361674 -0.809675 -0.309747 0.303315 -0.236655 0.432464 -0.574216 0.200604 -0.243605 0.809619 0.947443 -0.617738 -0.929312 0.19576 -0.090636 -0.325922 -0.39716 -0.538433 -0.455783 0.71571 0.235985 -0.162129 0.204698 -0.58325 -0.567311 0.485914 -0.282878 0.168547 0.559557 0.281955 0.492503 -0.374307 -0.920481 -0.504593 -0.789242 0.471448 0.323377 -0.505304 0.805599 -0.0476855 0.0694755 0.659426 -0.969633 -0.243146 -0.341174 -0.457866 0.0879015 -0.346211 0.697364 -0.834573 -0.218956 -0.823432 0.551691 0.734698 -0.973226 0.497839 0.312713 -0.602664 0.607146 -0.747747 0.541083 -0.833678 -0.893602 -0.25278 0.0700598 -0.0596129 0.0300019 -0.853423 0.0277045 0.853971 0.103684 -0.880411 0.196593 0.129794 0.449727 -0.0282754 0.178248 -0.33848 -0.941584 0.397159 -0.347151 -0.748016 0.386751 -0.740629 0.277185 -0.0131968 -0.45964 -0.268017 0.802886 0.0115212 0.951729 0.0855045 -0.896332 -0.813886 0.37518 -0.60054 -0.894285 0.807628 0.956444 -0.957452 0.131889 -0.999592 0.429142 -0.879462 0.142541 -0.580929 0.799781 0.660881 0.71207 -0.8257 -0.1032 0.793237 0.145173 0.68446 -0.937571 0.956883 -0.301231 -0.367808 -0.366469 0.0906188 -0.184004 -0.324178 -0.917091 0.477375 -0.0156184 -0.162824 0.777798 -0.100783 0.952953 -0.13243 -0.731246 0.073403 0.173554 0.269998 0.109475 0.676933 -0.893173 0.110004 -0.95586 0.69092 0.737585 -0.462457 0.526127 0.526513 -0.430505 -0.693438 0.933945 -0.983271 0.0193915 0.959334 -0.0998323 0.0495923 -0.545401 -0.780103 0.32498 0.591792 0.162978 -0.519584 -0.201591 0.115478 0.59101 0.833088 -0.114309 -0.341481 0.664724 -0.714973 0.0623155 0.654478 -0.206735 -0.876159 -0.877294 -0.329694 -0.465126 0.76779 0.150916 0.00591626 -0.914909 -0.675219 -0.68116 0.854856 -0.300217 -0.97836 0.0933513 -0.480784 -0.913562 -0.34676 -0.680088 0.978313 -0.96755 0.887035 0.810169 -0.140732 0.192205 0.205117 0.593069 0.0914472 0.218522 -0.303403 -0.42574 -0.0247475 0.257979 -0.203881 0.960124 0.814882 0.541909 -0.574173 0.371483 0.191393 -0.359893 0.385928 -0.73858 0.499751 -0.652186 0.566015 -0.0770594 0.479741 0.733521 -0.840391 -0.867549 0.972821 0.960974 -0.0877769 -0.826933 0.737203 -0.671258 -0.370544 -0.460871 0.755613 -0.557041 -0.74114 -0.133433 -1.02056 0.886387 0.22318 -0.920516 -0.982169 0.161169 0.29299 -0.398715 0.0448578 0.0361823 -0.257246 0.279108 0.855827 0.955924 0.539944 0.959529 -0.928063 -0.0716978 0.680838 -0.664184 0.329042 -0.227327 0.766722 0.198116 -0.368056 0.204747 -0.209761 -0.667936 -0.801266 0.00638162 -0.602169 0.745815 0.154901 -0.195631 -0.611276 -0.0976826 -0.629813 -0.329226 0.0130245 -0.417837 0.259275 0.611833 0.134868 -0.515644 -0.556526 0.29193 0.489423 0.871821 0.14778 0.897453 0.452035 0.457429 -0.700776 0.218201 0.857836 0.183631 0.783849 -0.170924 0.387107 -0.997579 -0.253688 -0.798419 0.660361 0.740203 0.81219 -0.969905 -0.0543184 0.23082 0.316268 -0.633334 -0.00506665 -0.939622 0.0185793 0.00802714 -0.935625 -0.279356 0.0918527 -0.777329 0.0606041 0.15915 0.53968 -0.943329 0.451382 0.760875 0.113482 0.569072 0.879009 -0.164034 0.423264 0.193394 -0.120041 0.767851 -0.747752 -0.938697 0.78593 0.950446 -0.426142 0.770148 -0.490597 -0.672223 -0.981093 0.233748 0.307103 -0.0777002 -0.350219 -0.592517 0.225625 0.832574 -0.332544 0.372694 -0.897284 -0.0749769 -0.463512 0.596644 -0.292955 0.795696 0.300418 0.962181 0.532459 -0.102671 0.469174 -0.629093 0.291899 0.00291489 -0.334724 -0.505987 -0.580158 -0.781512 -0.312822 -0.821898 -0.942985 -0.00577544 -0.30038 -0.342988 0.51848 -0.882895 0.607353 0.670876 -0.986727 0.492877 0.320649 -0.853547 0.758839 -0.269973 0.81028 0.982897 0.458809 0.641937 0.513961 -0.126528 0.90638 -0.408341 -0.741617 0.815634 -0.312821 0.0421171 0.15887 0.735815 -0.492013 -0.903649 0.734934 0.00300367 0.411674 -0.441013 -0.613839 -0.244273 0.712697 -0.128126 0.979329 0.696741 -0.554431 -0.262222 0.044355 0.704512 -0.573556 -0.936095 -0.541222 0.715923 -0.537821 0.969891 -0.013348 0.921681 0.121762 -0.374532 -0.480587 -0.000398214 0.966704 0.680355 0.522626 0.184635 0.254802 0.754327 -0.312148 -0.17264 0.915921 0.840161 0.56833 0.776261 -0.25775 -0.405527 -0.708276 0.896226 -0.0766116 0.798134 -0.462698 0.880635 -0.897053 -0.13621 0.582654 0.974541 -0.140058 -0.660108 0.447891 0.302124 0.807906 0.227663 -0.0127448 0.25538 -0.21072 -0.0570454 0.278665 0.670415 -0.390264 -0.616625 -0.604947 -0.386487 0.659954 0.655358 -0.688032 -0.96091 0.736385 0.041337 0.784047 -0.978748 -0.812889 0.324381 0.664946 -0.00727174 -0.303311 -0.0900665 -0.456972 -0.753182 -0.786699 -0.16684 -0.0110553 0.167382 -0.85298 -0.546674 0.064817 0.698065 -0.493315 -0.697719 -0.990868 -0.438541 0.545035 -0.113034 -0.829602 0.0571225 -0.7983 0.58484 0.61219 0.787575 0.460188 0.922854 -0.505004 0.189943 -0.0493358 0.431073 -0.939558 0.0316222 -0.933651 -0.408071 0.528063 -0.881746 0.136832 0.647658 -0.852226 0.65297 -0.75919 -0.485381 0.211285 -0.734975 -0.849363 -0.86355 -0.105623 -0.155353 0.0776757 -0.910036 -0.247326 -0.828312 0.903491 -0.287489 0.357125 -0.0108602 0.72561 0.928886 0.787822 -0.576257 0.920767 0.833479 0.60034 -0.124941 0.731633 -0.634503 -0.514008 -1.00162 0.639536 -0.055896 -0.59146 -0.556571 0.655413 0.0975356 0.953829 -0.0202862 0.124196 -0.430356 0.423445 0.524723 0.366666 -0.01399 0.948152 0.666339 0.284155 -0.390729 -0.57653 0.785901 -0.287009 -0.861667 0.0787381 0.340336 0.107165 0.851831 0.932925 0.352216 0.330017 -0.698067 -0.587674 -0.495764 -0.413547 0.613231 0.769076 -0.561821 0.541012 -0.781652 -0.858536 -0.418133 0.073205 -0.491406 0.830584 0.902026 -0.104127 0.475497 -0.829005 0.345659 0.446907 0.257616 0.349455 0.614958 -0.330941 0.717983 0.227401 0.992463 0.391245 -0.595567 0.506186 -0.860012 -0.372676 -0.722982 -0.884201 0.607519 -0.567583 -0.452482 0.49104 0.116392 -0.287188 -0.948147 -0.312261 0.171941 -0.719524 0.606767 -0.210586 -0.550382 -0.663981 0.574269 0.777882 -0.826856 -0.874479 0.873129 -0.91336 -0.0696704 0.771965 0.530359 0.70025 -0.744197 -0.56748 -0.133196 0.154392 -0.477023 0.354786 -0.489223 0.0370319 -0.681359 -0.792343 0.244782 0.304471 0.558575 0.803634 0.829036 -0.470315 -0.54191 0.298855 -0.936579 -0.564755 -0.258088 -0.993693 0.68012 0.692502 0.250249 -0.581588 0.785198 0.493063 0.554347 0.857898 -0.318289 -0.156447 0.0698758 0.463935 0.485573 0.95777 -0.461439 -0.32805 -0.0242989 0.306491 -0.947067 -0.543361 0.467481 0.551541 -0.0117573 0.51116 0.395857 -0.519699 -0.346578 0.314167 -0.997016 -0.291398 -0.839672 0.961756 0.858878 -0.481919 0.713421 -0.12995 0.0192131 0.705891 -0.156989 -0.177928 -0.525735 0.543724 0.618495 -0.690542 0.516764 0.121053 0.157892 0.00299866 0.0647554 -0.913946 -0.66562 0.310304 0.578143 -0.255526 -0.454143 0.822545 0.394383 -0.977066 -0.483653 0.912686 1.02313 0.533834 0.890395 -0.492888 0.293764 -0.543873 -0.025529 -0.259188 0.504812 -0.400986 -0.826447 0.0963014 -0.416243 -0.7172 0.811731 1.02971 1.17389 -0.625806 0.384942 -0.549424 0.698324 -0.199427 -0.0903212 0.51361 -0.864367 -0.949053 0.85553 -0.0477416 0.676941 0.412695 -0.363897 -0.209751 -0.254836 -1.08017 -0.101226 -0.205979 -0.791009 0.719573 0.537955 -0.313498 0.817424 -0.14231 -0.775848 -0.505199 0.735976 0.576269 -0.00303342 -0.0338547 -0.343863 -0.737001 0.744839 0.241221 -0.73262 0.596808 0.844576 0.00840338 -0.435605 -0.488065 -0.361042 0.354045 -0.68347 -0.878297 -0.728932 -0.271836 0.166952 -0.908994 0.0503244 0.522196 0.771035 0.152139 0.324698 -0.413072 0.496811 -0.297731 0.935939 0.525636 -0.0724606 0.622003 -0.964758 0.376201 0.426991 -0.766634 0.41865 0.361173 0.40832 0.626824 -0.401612 -0.546481 -0.107528 -0.214012 0.715148 -0.097132 -0.750481 -0.931922 -1.12873 -0.216768 -0.868849 -0.238498 -0.332833 -0.362675 -0.370718 -0.496379 -0.0426669 0.415908 -0.781364 0.650166 -0.91785 -1.33535 -0.11698 -0.775214 0.91854 1.31888 0.375964 -0.509387 -0.971076 -0.251795 0.24003 0.476475 0.789633 -0.0858536 -0.630927 -0.32052 0.615807 0.0589959 1.0621 1.15703 0.382016 -0.924585 0.129814 -0.387216 0.400946 -0.199586 -0.27734 -0.096785 0.650285 -0.663952 0.923832 0.639456 0.527165 0.847443 -0.691446 0.302197 0.501204 -0.604574 0.404547 -0.878769 -0.0721452 0.60095 -0.558435 0.565008 -0.600497 0.0709606 0.188553 0.566943 -0.882523 0.421586 0.918895 -0.711962 0.766839 -0.701063 0.984159 -0.175678 -0.71887 -0.145713 0.182306 0.163816 -1.11047 0.341448 0.466657 0.974226 0.86201 -0.51119 -0.0953683 0.484396 -0.427297 0.646843 -0.0499511 0.173171 -0.179939 -0.47023 0.0177224 0.8269 0.119386 -0.249949 -0.149579 0.70443 -0.00168696 0.250752 -0.315016 -0.400749 -0.416976 0.71809 -0.830306 -0.261487 0.200358 0.460325 -0.578215 0.123111 0.620573 0.743685 0.204266 -0.922881 0.498983 0.980458 0.588387 0.910225 -0.64643 -0.172489 0.377212 0.843273 -0.425261 0.41801 0.525262 -0.849243 -0.805165 -0.523719 0.746973 -0.489667 0.0205381 0.610423 -1.02043 0.0759641 0.493249 0.254472 -0.885407 0.559385 -0.379691 0.147344 -0.246359 -0.409187 0.313258 -0.203017 0.224164 -0.450135 0.708032 0.219617 -0.509805 0.353827 -0.177163 0.253181 0.37227 -0.128346 0.320798 -0.475441 0.796885 -0.807471 -0.888034 0.122108 -0.666786 -0.246715 0.302056 -0.401591 0.218389 0.232449 0.870271 -0.349939 0.900547 0.349881 -0.672792 0.379065 -0.741624 0.277363 -0.752092 -0.177759 -0.631453 -0.17307 -0.337188 -0.551847 -0.0625131 0.104141 0.959828 0.0907415 -0.397768 -0.71455 0.379456 0.914198 0.947071 -0.172612 0.128188 0.650739 -0.240481 0.755527 0.526998 -0.378667 0.408533 -0.997872 -0.942508 -0.63082 0.0982688 0.582898 0.563901 -0.156811 0.88144 -0.927762 0.637657 0.3599 0.0565528 -0.261183 -0.620092 -0.77568 0.882176 -0.909738 0.11775 0.652626 -0.21678 -0.799085 -0.649342 -0.595769 0.594849 -0.527996 0.0974505 0.0759819 -0.634693 0.406069 -0.191081 -0.848564 -0.225516 -0.496231 -0.492038 -0.198347 -0.412973 0.470702 -0.789508 -0.808391 -0.43993 0.931184 0.867093 -0.108357 0.0581375 0.149758 0.872673 0.0102189 0.128316 0.670785 -0.753779 0.782554 0.119561 -0.217766 -0.0564343 -0.328167 0.686289 -0.596717 1.04385 1.02833 0.340885 -0.111608 0.689576 0.137577 0.816163 0.550545 -0.722306 -0.644639 0.614937 -0.725912 0.100855 -0.244356 -0.890195 -0.233726 -0.504788 0.583888 -0.789866 0.399638 0.568512 -0.149315 -0.701631 -0.399043 -0.407194 0.513544 -0.651242 -0.430617 0.872439 0.77611 0.794432 0.741808 0.533829 -0.29886 0.250067 0.257013 -0.547405 -0.107145 -0.119692 -0.919581 0.301232 0.554833 -0.91518 0.0185947 0.894441 0.0630231 -0.782962 -0.14218 -0.822383 0.176086 -0.447441 -0.554957 -0.454083 -0.32889 0.579876 -0.331062 -0.742592 0.694295 0.475867 -0.799511 0.601709 -0.273902 0.784376 -0.833092 0.00266013 0.912579 -0.820341 0.716533 0.10777 -0.423465 0.744096 -0.264719 -0.456435 -0.971743 -0.84264 -0.602654 0.367603 -0.0578181 -0.352731 0.483129 -0.033941 0.508589 0.417285 0.488937 0.533929 0.384059 -0.482452 0.402227 0.678967 -0.122767 -0.499678 -0.991318 0.624731 -0.201704 0.347509 -0.291482 0.284011 -0.2965 -0.507518 -0.388492 0.396691 -0.730221 -0.199872 -0.268611 -0.551832 0.356494 0.538835 1.04292 0.2503 0.72067 -0.490186 -0.397275 -0.892134 -0.0336002 0.178967 -0.507005 -0.448252 -0.295737 0.48459 -0.538923 -0.396197 0.448993 -0.973327 0.246343 0.786936 -0.600013 -0.677161 0.780265 -0.891993 0.329582 -0.465588 0.511379 -0.195947 -0.481356 0.216415 -0.964165 -0.549567 0.679579 -0.370812 -0.298678 0.957671 -0.191226 1.00774 -0.413444 -0.0969229 0.761647 0.065751 -0.598987 0.363381 0.315621 0.25987 0.808411 1.02588 0.395257 0.173979 -0.448708 0.445872 -0.196954 0.39945 -0.0732876 0.598102 0.390465 -0.924901 0.134132 -0.110964 0.441113 -0.90802 -0.503828 0.208336 0.414199 -0.896864 -0.992121 0.406919 -0.876311 -0.0478276 -0.754366 -0.121439 -0.278927 -0.904961 -0.462019 -0.628356 -0.288084 0.241014 -0.116541 0.397854 0.54593 -0.814295 -0.687496 0.472199 1.12915 0.39871 0.688749 -0.403997 -0.132924 -0.596489 0.823927 0.470133 -0.450692 0.396793 0.826489 -0.442636 1.0807 -0.411201 0.273495 0.194893 0.235557 -0.682058 0.404245 0.805418 0.128637 0.741429 0.417122 0.885897 -0.266752 0.675315 1.0369 -0.216584 0.865575 0.0125343 -0.0694805 -0.714484 -0.638419 0.0554134 -0.52738 0.0203436 -0.239082 0.412917 -0.567201 0.530556 -0.454747 -0.0122282 0.102666 -0.298257 0.0203525 0.723979 -0.0036343 0.13187 0.790675 0.154142 -0.829636 0.173752 -0.836481 0.317627 -0.868275 -0.65658 0.852352 0.172506 0.399983 -0.599942 -0.791353 -1.03142 0.649534 0.942475 0.625659 -0.578375 0.257467 0.435773 0.0343813 0.101153 -0.244367 0.957108 -0.464058 -0.652556 -0.550191 0.90509 0.912257 0.796328 0.667119 0.646561 -0.92585 -0.276344 -0.0118633 1.07446 -0.698417 -0.194679 -0.213815 0.0201267 0.120598 -0.0938089 -0.0159011 -0.110396 0.314048 0.625481 0.454327 -0.108573 -0.518444 0.555893 1.18953 -0.843529 -0.637689 -0.526636 0.772201 0.544371 0.813002 -0.855347 -0.626739 -0.300564 -0.888819 0.889558 -0.831121 0.66302 0.0241956 -0.732176 0.2787 -0.245648 -0.673293 -0.889002 -0.221526 -0.869297 0.566732 -0.997821 -0.0689625 0.351826 0.405243 -0.57744 -0.353419 -0.172697 0.145063 0.209197 -0.985797 -0.896175 -0.380281 -0.880216 -0.285184 0.851022 -0.7599 0.66215 0.00434466 -0.929977 0.294827 -0.43961 -0.0368511 0.150146 0.504716 -0.48702 -0.814744 0.667899 -0.833401 -0.495475 -0.116495 -0.69389 -0.521508 0.171133 -0.597226 -0.142621 -0.790096 0.498609 0.266263 -0.412123 0.0213167 -0.487195 0.808244 0.0722677 0.244586 -0.617425 0.91272 -0.702393 1.01922 -0.307945 0.949722 0.987473 0.971373 -0.273488 0.565256 0.178302 0.518458 0.191457 -0.771286 0.404324 0.780748 0.683301 0.110789 -0.428209 0.803543 0.313405 0.462181 0.144536 -0.506122 0.264275 -0.981434 -1.02848 -0.113202 0.655652 0.364667 -0.177278 -0.871832 0.624625 -0.185284 0.0579894 -0.0202194 -0.281534 0.310279 -0.139987 -0.788852 0.00569807 0.382591 0.166069 -0.605852 0.135397 -0.786842 -0.876691 0.193358 -0.191961 0.642283 -0.503416 0.939198 0.758411 -0.767326 -0.0127585 -0.611081 0.28083 0.241075 -0.802448 -0.0204591 0.285305 0.133996 -0.150046 0.776178 -0.662739 1.01167 -0.68375 -0.716962 -0.576112 -0.718457 -0.585122 0.102423 -0.432051 -0.730114 -1.0707 -0.592762 -0.0433169 -0.598524 -0.532629 0.37077 0.665137 -1.00516 -0.494985 -0.0300602 0.880869 -0.188899 0.179517 -0.831763 -0.352849 -0.415898 0.967354 0.73148 -0.0954343 0.907698 -0.0121322 -0.539846 -0.159661 0.658202 -0.183225 0.699078 -0.0876137 0.93004 -0.168844 -0.510106 -0.741123 -0.090958 0.0189391 -0.936488 0.429573 0.404637 0.410996 -0.716965 0.724773 0.62976 0.652902 -0.46774 0.788506 0.225736 -0.422618 -0.05547 -0.733029 -0.0144674 0.977941 -0.911224 -0.0918366 0.8191 -0.706608 -0.547643 -0.266141 -0.0823932 0.467487 0.325803 1.04159 -0.161762 -0.297562 -0.683696 -0.0306968 -0.329937 -0.359378 -0.656605 0.117301 0.75261 -0.31143 0.591434 -0.00379648 0.649149 -0.507945 0.196154 -0.736088 0.660844 -0.671674 -0.151449 -0.147572 0.816032 0.38077 0.916047 -0.352853 1.01179 0.396481 -0.25427 0.823035 0.400539 0.698566 -0.00986961 -0.199184 0.641795 0.0800644 0.0543198 0.175861 0.179175 -0.507336 -0.265393 0.491691 -0.606308 0.439691 0.556821 -0.748615 0.468037 0.882054 0.721266 0.868285 0.362304 -0.593378 -0.142823 -0.632801 -0.431136 -0.623249 -0.666322 -0.215202 0.466154 0.749869 -0.951082 -0.721213 -0.156189 0.714493 -1.21186 -0.872985 -0.16986 0.780444 1.11353 0.597842 -0.157863 0.699463 -0.057326 -0.47674 -0.823366 0.890767 0.889645 -0.917227 0.855007 -0.451117 0.431419 0.871438 1.03511 1.19856 -0.107183 -0.92694 0.464362 0.0870502 -0.2108 -0.589028 -0.385888 0.178853 -0.746881 0.0778318 -0.54526 0.4822 0.539562 -0.798884 0.81897 -0.0243659 0.757501 1.06356 0.68418 -0.0599509 0.17477 -0.0540026 0.570226 0.590113 -0.256394 -0.711776 0.404773 -0.162962 0.740637 -0.830293 0.456098 1.03735 -0.517305 -0.0605836 0.584679 -0.796587 -0.330376 -0.0177046 -0.529042 0.120643 -0.0247823 0.778846 -0.0485093 1.00383 0.0283088 -0.704237 0.560468 0.649505 -0.514027 0.545093 0.0299215 -0.233903 -0.339712 -0.881487 -1.01502 -0.862625 -0.564206 0.806574 0.62334 0.902415 -0.815906 0.183359 -0.918381 -0.592672 0.110885 0.576064 -0.254873 0.654965 0.282468 -0.280425 1.0159 0.356797 0.426435 0.942291 0.439762 -0.305041 -0.600704 -0.262602 0.215102 1.00615 -0.516429 -0.62427 -0.434296 0.730397 -0.441175 0.591974 -0.64142 0.457318 0.969074 0.67701 0.102864 -0.290753 -0.311732 -0.228764 -0.0190619 -0.710796 -0.700191 -0.48561 -0.337005 -0.0493359 -0.760789 0.914467 -0.526133 -0.0103683 -0.33839 -0.86234 -0.434732 0.979744 -0.969921 -0.116744 -0.980485 -0.0449636 -0.777803 0.0100841 -0.231302 -0.323947 -0.5866 -0.767 -0.24328 -0.169564 0.883448 0.874974 0.586516 -0.0289208 -0.45705 -0.761037 -0.158667 0.0955763 0.143396 0.183225 0.313779 -0.00644561 -0.427271 -0.0409681 -0.530398 0.174904 -0.0717017 0.838183 -0.499838 0.65466 0.603881 -0.978804 0.0936055 0.461041 0.556672 -0.665563 -0.23861 0.684904 0.0667513 -0.011979 0.907167 -0.250082 -0.431686 0.267094 0.432531 0.65169 0.802145 -0.673443 -0.739885 0.575018 0.0511001 -0.355221 1.00464 0.97811 0.0752388 0.772849 -0.662319 0.55841 -0.857329 0.910889 0.110759 -0.129203 -0.728832 -0.661933 -0.50637 0.231192 0.195989 0.679382 0.97327 -0.900049 0.874237 0.603861 -0.826774 -0.527506 -0.506156 0.114451 -0.179019 0.606255 0.27436 -0.388855 0.978363 0.509435 -0.140411 -0.147105 0.255013 0.9368 -0.955308 -0.351909 -0.558881 -0.212233 -0.704624 0.168193 -0.187001 0.47016 0.227025 -0.424136 0.45189 -0.551711 -0.10844 -0.405977 0.445019 -0.20638 -0.191404 -0.379538 0.445532 -0.240473 -0.846109 -0.76435 0.125466 0.291332 -0.367594 0.772701 -0.481509 -0.414578 -0.24734 0.556881 -0.109549 0.567293 0.63833 0.205604 -0.121389 0.744718 0.0482769 -0.221911 -0.218308 0.49201 -0.85953 -0.424362 -0.977294 0.0705715 0.0878299 0.936412 -0.684397 0.9585 -0.806123 0.104187 0.223004 -0.371584 -0.872921 -0.353846 -0.116284 0.488658 -0.79822 0.603667 0.0343596 0.296613 -0.37159 0.283873 0.460328 -0.539254 -0.876837 -0.546355 -0.402432 0.599208 -0.0203146 0.49416 0.907634 -0.583172 -0.551396 0.46503 -0.768975 -0.0370824 0.36612 -0.570419 -0.832677 -0.685242 0.0051206 0.00847421 0.980959 1.00844 0.309664 -0.866221 0.0848558 0.809507 0.0577496 0.646908 -0.440354 -0.725347 0.801986 -0.296204 0.923616 -0.848674 0.232374 -0.579926 0.269729 1.02677 -0.651624 0.793623 -0.112816 -0.0581948 -0.773783 -0.589219 0.371595 -0.379435 -0.0946911 -0.397146 0.0335713 -0.334226 -0.127261 0.62766 -0.961607 0.513782 -0.438043 0.645245 0.153372 -0.254986 0.545616 0.323592 -0.508078 -0.903241 0.125067 0.877942 0.925399 0.258295 -0.937527 0.056271 0.644558 -0.938766 0.128589 0.27544 -0.607454 -0.869355 0.0829885 0.306843 1.02369 0.383629 0.984652 0.835146 -0.428529 -0.327524 0.746536 0.714538 0.186823 0.0825791 0.551037 -0.482097 -0.95477 -0.423246 -0.780483 -0.184953 0.181407 -0.4594 -0.395749 0.279443 -0.428929 0.341219 -0.878327 -0.170018 -0.356985 0.38358 0.351893 -0.0102152 -0.272728 -0.304329 0.624493 0.703762 0.203763 -0.813855 -0.829108 0.0863436 -0.424414 0.25435 -0.755243 0.364354 0.0180129 1.03266 0.844484 0.795298 -0.0416657 0.565806 0.183372 0.346037 0.776469 0.343194 -0.0115166 -0.0555361 1.00143 -0.019296 -0.296116 -0.10765 0.974005 1.01392 0.118643 -0.723261 -0.636316 0.579277 -0.673235 0.0666799 0.706061 -0.120376 0.617781 -0.948411 -0.69033 0.609991 0.803647 0.159123 0.494401 -0.412224 -0.466967 0.631156 0.14878 -0.448609 -0.362378 -0.881223 -0.277741 0.890182 -0.364375 -0.0439658 0.164183 0.365992 0.315636 0.224813 0.253167 0.92584 0.0727 -0.737543 0.243212 -0.662344 0.633107 -0.552927 0.669732 -0.729755 0.0938163 0.57485 -0.39532 -0.437306 -0.656349 -0.908494 -0.13519 -0.776097 0.76747 0.404539 -0.486435 -0.113904 0.838429 0.836941 -0.965741 0.390835 0.22416 -0.0776105 0.882231 -0.416414 -0.238476 -0.180791 0.415948 0.696742 0.462073 -0.504065 0.611743 0.00964419 0.823604 -0.961031 -0.167373 -0.407963 0.457937 0.333787 -0.781443 -0.477467 -0.879114 0.722974 0.567186 0.283996 0.725782 0.412489 0.101612 1.00196 -0.964156 -0.114285 0.268072 0.18148 0.473902 0.781344 0.594437 -0.20695 0.70727 -0.333889 -0.884013 -0.713729 0.573151 -0.469166 -0.516061 -0.501766 -0.798426 0.652774 0.443676 0.0950361 -0.674293 -0.845723 0.629636 0.43939 0.0865955 0.236482 0.438171 0.701412 -0.0877692 0.453005 0.50803 -0.408843 -0.302265 0.807275 -0.721032 0.760689 0.897237 -0.847715 -0.0424533 0.454619 0.108361 0.950401 -0.22814 -0.168261 -0.846863 -0.196068 -0.131244 0.306927 -0.689731 -0.933143 -0.656871 0.0398984 0.805727 0.654515 -0.0315358 0.868426 -0.837194 1.00173 0.126622 -0.655227 -0.0630664 -0.561423 -0.0827763 0.419844 -0.173274 -0.0540426 -0.016399 -0.76721 0.22797 0.754166 0.243523 -0.598088 -0.491841 0.738073 0.593063 -0.310665 0.456647 -0.331925 0.295217 0.382925 0.435762 0.715874 -0.837585 -0.61798 0.089323 -0.168694 -0.805264 0.77454 0.745715 -0.171572 1.00209 -0.515312 -0.818841 0.254722 0.044429 -0.39631 0.395248 -0.635554 0.969601 0.694514 0.268001 0.581277 0.326565 0.69476 -0.646681 -0.206155 0.125625 0.983317 0.152322 0.831776 -0.952364 -0.576267 0.172968 0.865014 -0.370209 0.0493761 0.850349 -0.164675 0.384806 0.555639 -0.0762213 0.748759 -0.185111 0.167814 0.21858 0.892875 -0.912152 0.579887 -0.0293433 -0.896408 0.971135 -0.958955 -0.774913 -0.921142 -0.970857 -0.350265 -0.417114 0.166162 0.692176 0.812694 0.0609736 -0.365916 0.49648 -0.263985 0.858059 0.984615 0.38995 0.644168 0.0978566 0.541614 -0.392522 0.255061 0.698833 0.870387 0.994286 -0.88574 -0.512591 0.719588 -0.675497 -0.742405 0.264246 0.623499 0.943304 0.0563478 -0.166829 0.982235 0.0666573 0.468109 0.0816178 -0.511643 -0.430156 -0.868306 -0.672951 0.745855 0.991788 1.01995 0.53044 -0.0577233 0.836662 0.344941 0.236343 0.956689 0.914758 0.0504167 0.805913 0.720721 0.516331 0.625908 0.0175223 0.980806 -0.134983 -0.147455 -0.927612 -0.641261 -0.923481 -0.830723 -0.799665 -0.774192 0.277686 -0.57606 -0.465132 0.634265 -0.21907 0.960666 0.273671 0.616295 -0.433247 0.320107 -0.607214 -0.408526 -0.580204 -0.370723 -0.241683 -0.864778 -0.68513 -0.214009 0.373311 -0.145225 0.486103 0.992502 0.350941 -0.855013 -0.508697 -0.966049 -0.0998493 0.172209 0.390559 -0.782802 0.496493 -0.969168 -0.614731 0.0839698 0.845249 -0.258116 -0.890301 -0.626373 0.135155 -0.333572 0.976046 0.78869 0.551014 0.154502 0.0382161 0.794844 0.0163369 0.164297 0.900874 -0.841756 0.168249 0.824344 0.799214 -0.474694 -0.986302 0.108921 0.503464 -0.447201 -0.0688214 0.555013 -0.788893 -0.00368166 0.931768 0.559124 -0.814056 0.204958 0.202059 0.831146 -0.140695 0.1249 0.778521 -0.523276 0.97241 -0.0467339 -0.122736 0.292954 -0.422234 0.705481 0.835493 -0.214576 0.853124 0.489603 -0.58149 -0.143191 0.58639 -0.865868 0.799472 -0.495537 -0.800578 0.657389 -0.379458 -0.263625 -0.0587454 0.725125 -0.217853 -0.566156 -0.137798 0.817804 -0.457547 -0.0354664 -0.968112 -0.53828 0.63613 0.939273 0.141804 -0.660715 -0.587391 0.687334 -0.5288 0.00375094 -0.348947 0.868908 -0.257096 0.302036 -0.455529 0.948676 0.25205 -0.528807 0.0963287 -0.669 -0.82599 -0.547453 -0.370633 0.613687 -0.21848 -0.747223 0.442015 -0.870962 -0.207914 -0.110799 0.261535 0.475825 0.674945 0.238423 0.904688 -0.647452 0.648521 -0.465669 -0.80603 0.285782 -0.300651 0.0728679 0.57604 0.489292 -0.855027 0.676656 0.973482 0.556724 -0.486249 -0.948213 -0.14038 -0.752953 -0.694352 0.678805 -0.0554733 0.616208 0.206199 0.532128 0.737287 0.869385 0.179822 0.400979 -0.503987 -0.112082 0.265476 -0.7033 0.784625 0.842748 -0.91667 -0.167948 -0.790931 -0.891101 -0.272332 -0.590891 -0.314667 -0.689408 -0.88855 0.944872 0.0522097 -0.178576 -0.637121 -0.314401 -0.740907 0.584606 0.310954 0.456161 0.222967 -0.455428 -0.629154 -0.453599 -0.245608 -0.331345 -0.924607 -0.875328 -0.623987 0.945544 -0.571974 -0.608758 0.272309 0.504656 0.210352 0.924627 0.0351411 0.124163 0.133924 0.767427 -0.378263 -0.0922244 0.685355 -0.486602 0.663173 0.92689 -0.806373 0.146727 -0.0954299 -0.300536 0.894143 -0.0279276 0.652249 0.835749 -0.616865 0.642525 -0.441354 0.978551 0.0491548 -0.224364 0.00589447 -0.128303 -0.383001 -0.562637 0.227143 0.990997 -0.481209 0.740267 0.521469 0.0673611 -0.371082 0.688725 0.7674 0.604095 0.844551 0.0237083 0.110782 0.257723 0.551255 0.405535 0.942205 -0.0400163 0.297177 -0.581294 -0.380004 -0.227118 -0.0234296 0.552786 -0.245814 0.778687 -0.762041 0.922473 0.544634 0.803667 0.814206 -0.850769 0.54756 0.632568 0.229855 0.558396 0.756893 -0.529278 -0.146823 -0.692051 0.919943 0.672862 -0.620143 -0.456295 -0.109489 -0.522955 0.438423 0.29657 -0.211258 -0.12156 -0.0723422 -0.499521 0.68663 0.691931 0.133909 -0.0388908 0.119033 0.425046 -0.24831 0.245913 -0.541655 -0.578939 -0.953337 0.624189 0.338685 -0.424161 0.130762 0.161322 0.935624 -0.179535 0.652741 0.0123578 0.0818886 -0.280191 -0.609561 -0.130583 -0.987903 0.179624 0.0867817 0.949242 -0.8874 -0.0897176 -0.206827 0.45595 0.385678 -0.136843 -0.787239 -0.414604 -0.132098 -0.431519 -0.188658 0.986683 -0.741147 0.392494 0.61572 1.01229 -0.298929 -0.775364 -0.810032 -0.0355549 -0.576844 -0.399531 0.00852717 -0.223133 -0.456972 -0.584801 0.130863 0.588356 0.0979779 0.196261 0.0205799 -0.463709 0.792046 0.364782 0.973698 0.45568 -0.323304 0.320865 0.50261 0.301816 0.477153 -0.235399 0.164832 0.778169 0.078583 0.694771 -0.136766 0.794012 -0.222289 0.341589 -0.484298 0.287117 -0.747548 -0.516088 0.671144 0.455511 -0.308058 0.00251842 0.209186 -0.815041 -0.731085 -0.0869452 -0.295954 1.0025 0.106439 0.432571 0.699013 -0.537041 -0.00525303 0.576064 0.744258 -0.195965 -0.268461 -0.479633 0.106558 -0.918805 0.347202 -0.215987 -0.901394 0.585032 0.573862 -0.688079 -0.0725434 -0.726274 -0.377357 0.552204 -0.393365 0.575134 0.742161 0.664109 0.754647 -0.890028 -0.87125 -0.698868 0.346771 0.573292 -0.26194 0.902476 -0.0753123 -0.694488 -0.691816 -0.868706 0.184291 -0.421844 0.25465 0.538879 -0.964533 -0.391718 -0.589682 0.0526605 -0.213572 -0.381728 -0.824151 0.195724 -0.355671 0.389587 -0.315171 0.303782 -0.288615 -0.60823 -0.430733 0.715646 0.820845 0.198448 -0.349567 -0.910537 0.868208 0.745786 -0.896189 0.343505 -0.2832 -0.264786 0.846957 0.158642 -0.335079 0.706791 -0.315262 0.0454954 -1.03073 -0.358325 -0.269608 -0.0659717 0.99736 0.682891 0.186628 0.628976 0.0733841 -0.901651 0.105223 -0.15812 0.656532 0.950658 -0.386575 0.386461 -0.584988 0.477517 0.213206 -0.899887 -0.11123 -0.779434 0.343152 0.147756 -0.0864998 -0.838031 -0.736957 -0.172206 0.640473 -0.380616 0.122783 0.876414 -0.0758047 -0.178484 -0.629877 -0.679409 0.774127 0.576214 0.308001 0.00178275 0.422521 0.27476 0.953555 -0.44864 0.487974 0.942061 0.111816 0.391607 -0.0641137 -0.246821 -0.646041 -0.110741 -0.317916 0.775523 -0.193765 -0.321485 -0.00669169 -0.667127 0.467397 0.377895 -0.573512 -0.885247 0.714457 0.0657299 -0.924085 -0.415568 0.563327 0.883568 0.878676 -0.242474 0.0484162 0.0778885 -0.676695 -0.687616 -0.17267 0.192622 0.942902 0.820959 0.29998 0.627352 -0.666738 0.303898 0.767288 0.386703 0.987853 -0.83261 0.50292 0.473829 0.13342 0.250603 0.807518 -0.984837 -0.465946 -0.470981 0.909697 0.783225 0.622698 0.100121 -0.0584269 1.00245 -0.533132 0.573905 -0.648843 0.00517814 -0.295676 0.303697 -0.463767 0.524019 -0.747784 -0.758253 -0.0805916 -0.505286 0.459068 -0.743693 -0.0704546 -0.267007 -0.683425 0.627712 0.822978 -0.451319 -0.0583013 0.825222 -0.868204 -0.758934 -0.701655 0.607011 0.275271 0.200642 0.82894 0.317285 -0.0457491 0.0225257 -0.2352 -0.924442 0.643453 -0.669326 0.482367 0.887012 -0.419377 -0.509331 0.962415 -0.781287 0.29719 -0.905434 -0.903441 0.511089 0.778416 0.828493 0.132556 0.707833 -0.372285 -0.056181 -0.0387478 0.770824 0.670341 0.835513 -0.329808 0.870412 -0.934978 -0.736145 0.205605 -0.650436 0.562909 -0.515535 0.185677 0.71297 -0.557715 0.342548 -0.34677 0.977703 0.55162 -0.109088 0.336003 0.80159 -0.0474544 -0.553878 0.916282 -0.384183 0.756463 0.936484 -0.499229 0.213249 -0.376412 0.905076 -0.847666 -0.327305 -0.651607 -0.342714 0.626112 -0.884269 0.750168 1.00129 0.197456 0.688671 0.902509 0.736574 1.0244 0.833075 -0.482373 -0.702701 0.782271 0.215764 -0.745696 -0.220583 0.319526 0.965583 -0.394056 0.779305 0.202575 -0.136695 0.157291 -0.540199 -0.43444 0.31012 0.652936 0.659935 0.400785 0.151135 -0.706599 -0.0786199 0.154408 0.00929471 -0.693507 -0.0714484 0.818472 -0.753253 -0.23827 0.283595 0.521125 0.773783 0.11846 -0.353614 -0.704518 -0.914705 -0.508932 0.677347 0.18103 -0.556327 0.849767 -0.497992 -0.449635 0.100691 0.199878 -0.475652 0.0706014 0.83908 0.645186 0.427495 0.0678281 -0.958992 -0.829565 0.629362 0.811354 0.656572 -0.853118 0.0808548 0.791151 0.810079 -0.0235453 -0.314325 -0.451804 -0.791901 0.262032 -0.625934 -0.230017 -0.228277 0.0437059 -0.9339 -0.879741 0.756178 0.584267 -0.454 -0.96683 -0.237171 0.747337 -0.350357 0.0256503 0.948911 0.14853 -0.650566 -0.809217 -0.189524 -0.891981 -0.377361 0.132897 -0.902141 -0.303735 0.405678 -0.209522 0.781582 0.700076 0.0579631 -0.127131 -0.322638 0.599448 0.198376 -0.562968 0.164246 0.0997248 -0.882875 0.354593 -0.565612 0.501249 0.567402 0.00146207 -0.692628 -0.794759 0.765438 -0.261772 0.642105 0.703875 -0.814723 0.611104 0.340724 0.532589 0.238932 -0.551217 0.914357 -0.976223 -0.0752388 0.177003 -0.830295 0.618984 -0.556182 -0.0908082 -0.529503 -0.411712 -0.95793 -0.908869 -0.581427 -0.5726 -0.964875 0.623473 0.0391767 -0.403966 -0.644136 0.330435 -0.334285 0.610117 -0.903955 -0.76989 0.853259 -0.0530017 0.0249018 -0.0526311 -0.114886 0.864655 0.351043 -0.355724 -0.0300901 0.144966 0.898599 -0.280029 -0.961171 0.828316 0.0654131 0.082529 0.054864 0.488454 -0.73378 0.153145 0.772668 0.737302 0.714356 -0.270939 -0.203262 0.155314 0.69408 -0.191281 -0.0109348 0.466233 0.0423518 0.856189 -0.110759 -0.96503 -0.427618 0.671521 0.969625 0.216964 0.913892 -0.876221 0.773402 0.37611 -0.190198 0.383442 0.770794 0.344155 0.464297 0.906473 -0.422534 -0.583867 0.462548 -0.428344 0.950549 0.728123 0.0283414 -0.628083 0.193661 0.516949 -0.628541 0.995474 -0.350499 0.0648911 -0.664804 0.59339 0.501167 0.730523 0.757078 0.401305 0.235109 0.65897 -0.103757 -0.809853 0.459951 -0.520534 0.861613 0.262899 0.269125 0.882309 -0.290899 0.817338 -0.504298 -0.681236 -0.238232 -0.58395 0.84957 -0.272519 -0.843628 0.985158 -0.44635 -0.298414 0.726463 0.935629 0.404513 0.526868 -0.9633 0.418049 -0.389303 1.01428 -0.336518 0.30537 -0.452236 0.736441 0.795722 0.446483 -0.794575 -0.833716 0.0252451 -0.79172 -0.229502 -0.0379571 -0.194605 0.790232 0.117115 -0.982666 0.349013 0.242446 -0.266183 0.31653 -0.844801 0.729702 0.121255 -0.043547 0.197454 0.693156 0.0895397 0.99162 -0.553022 0.579176 -0.358773 0.862121 0.800258 0.467545 -0.443367 -0.11742 0.596449 0.479099 -0.814848 0.504663 0.996464 0.886138 0.00789287 -0.150069 0.0751844 0.939496 0.666436 -0.0886667 0.973978 0.55804 0.62493 -0.803106 0.0634863 -0.0392833 0.198558 0.225556 -0.681791 0.071435 -0.389071 -0.604624 -0.36433 0.26024 0.957519 0.884041 -0.751179 0.394541 -0.593161 -0.796434 0.455639 0.00658473 0.356821 -0.0569865 -0.630475 -0.114093 0.184065 -0.335682 -0.421081 0.0720418 -0.859557 0.6513 0.863896 -0.911467 0.977429 -0.591744 -0.486036 -0.90184 -0.565946 -0.171569 0.531813 -0.621485 -0.605477 0.00639361 -0.659954 0.95505 -0.816425 -0.360483 0.92419 0.166889 -0.471979 -0.00722955 0.00791271 -0.485342 0.135602 0.632967 0.439696 -0.836118 0.315811 -0.870564 -0.54095 -0.102711 0.891117 -0.109722 -0.961998 -0.813392 0.434828 -0.475153 0.589352 0.515977 0.619938 0.619772 0.260034 -0.44998 0.364715 0.778557 0.975207 -0.905307 0.014806 0.60755 -0.606105 0.300076 0.00932151 0.974006 0.176867 0.817315 -0.0238192 -0.847175 0.634118 0.509961 -0.296105 -0.33262 -0.103015 0.100551 0.241229 -0.220929 0.594123 -0.936983 0.171981 0.976496 0.242411 0.0538755 0.211608 -0.0247521 0.214877 0.241651 -0.0326724 0.68954 -0.91588 0.308495 -0.15057 -0.880653 -0.335184 -0.67541 -0.231447 -0.553495 0.80727 0.598963 -0.873425 -0.898154 -0.956339 0.830412 0.935274 -0.639494 -0.0493092 -0.195303 -0.680039 0.00103882 0.931512 -0.939543 0.924722 -0.5839 0.945978 0.0512722 0.271083 0.267912 0.0354397 0.346838 0.683273 -0.872274 -0.290798 -0.32558 0.973701 0.833657 0.860898 -0.31072 0.828186 -0.228907 0.830159 -0.228839 0.296604 0.281999 -0.418527 -0.289121 0.652108 -0.810227 0.00645726 -0.30307 0.363582 0.313222 -0.416446 -0.965235 0.283957 -0.230316 0.0989368 -0.487854 0.951283 0.549444 -0.613621 -0.767892 0.826347 0.539683 -0.857996 0.538954 -0.272013 0.61477 0.906676 0.514592 -0.610781 0.419566 0.950508 0.877862 0.341321 0.228977 0.485065 0.0068565 -0.679498 -0.667204 -0.277263 -0.9058 0.85137 -0.922997 0.0847753 -0.389277 0.104837 0.176567 0.466544 -0.530575 0.00352719 0.515814 -0.620845 0.696376 -0.396224 -0.30048 -0.462967 -0.428738 0.555422 -0.899555 -0.342947 -0.734444 0.213058 0.0552882 -0.385317 -0.644375 -0.459722 0.998773 -0.728052 0.390505 0.333274 -0.558402 0.286811 0.252453 0.852648 0.813552 0.117466 -0.35268 0.921541 -0.454424 -0.620342 0.611455 -0.121702 0.907768 -0.132122 0.517989 -0.922564 -0.571221 -0.714039 -0.0689543 -0.784108 0.454809 0.384258 0.0383748 0.361239 0.918125 0.618692 0.156602 -0.0845208 0.145987 -0.0259598 -0.86912 0.0805085 -0.596461 -0.213925 0.657382 0.788115 0.30546 -0.0855846 0.494136 0.507182 0.449687 0.513306 -0.923836 0.106767 0.499273 -0.0668396 -0.00562078 -0.101519 0.361631 -0.373296 0.826128 0.637602 -0.979544 -0.180726 -0.647019 -0.848642 1.00949 -0.809202 -0.713084 -0.57763 -0.36617 0.312365 -0.5192 -0.000844083 -0.00629546 0.0976945 -0.437337 -0.0400406 -0.143929 -0.453748 0.319153 0.237448 -0.648506 0.639389 0.991359 0.998181 -0.4678 0.68031 0.811009 -0.149712 0.564459 0.895799 -0.54175 -0.708973 0.177674 -0.575466 0.241076 0.576065 0.405678 0.72594 -0.423746 0.483476 0.0153445 -0.784876 0.900322 -0.604647 0.996526 0.721638 0.695952 0.0201452 0.521657 -0.142219 0.678007 -0.848299 0.647782 -0.257579 -0.395785 0.434807 -0.452413 -0.106334 -0.938945 0.658727 -0.928061 -0.381255 0.168179 -0.481246 -0.783242 0.97735 0.256202 0.841558 0.989844 -0.222182 -0.606265 0.152109 0.316149 0.270742 0.0760554 0.0128302 -0.859462 0.0888651 -0.948507 -0.202737 0.806039 0.704789 0.821078 0.415813 0.252068 -0.297713 0.767457 -0.318887 -0.477812 -0.750813 0.948892 0.0740608 -0.120603 -0.0510373 0.0758512 0.331058 0.128145 -0.435436 0.835994 -0.378714 0.466262 -0.763181 -0.138056 -0.197887 -0.183362 0.0646144 -0.0470838 0.829147 -0.0853366 0.334169 0.0192812 -0.454376 -0.174737 0.798514 -0.90615 0.636786 0.538427 -0.884376 -0.419048 -0.645954 -0.619318 0.423952 -0.920147 -0.159598 -0.553491 0.657364 0.14096 -0.61703 -0.383551 0.824818 0.793909 0.242873 0.440052 -0.806988 0.725896 -0.211805 -0.17378 0.561425 0.996662 0.658066 -0.890533 0.00348717 -0.702305 0.3117 0.235471 0.33271 0.966498 -0.765857 0.797881 0.930822 -0.987926 -0.65697 0.53748 0.745882 -0.190254 0.13402 -0.0631593 0.534694 0.703071 -0.401117 -0.0893002 0.189251 -0.560411 -0.213028 -0.0883175 0.212967 0.316814 0.066069 -0.79244 -0.832951 -0.623061 0.855468 0.900914 -0.158147 -0.181978 -0.123803 0.137659 0.539595 -0.254192 0.747905 0.484341 -0.814914 -0.965398 0.510999 -0.664421 -0.861879 -0.64236 0.125243 -0.503096 0.373579 -0.757282 0.493633 0.983647 0.809396 -0.467506 -0.510258 -0.0802597 -0.454039 0.229508 -0.476498 -0.907749 0.733848 0.237293 0.815935 -0.683766 -0.934084 -0.871669 -0.823698 -0.394928 0.395259 0.415415 -0.578346 -0.496875 0.476036 0.465394 0.822412 -0.364903 0.0975655 -0.177767 0.82689 -0.129462 -0.753947 0.808191 -0.983885 0.773803 -0.262084 -0.860524 -0.110441 0.19419 -0.352378 0.135727 0.0286376 0.344391 0.520422 0.807065 -0.129057 0.960542 0.44609 0.329314 -0.71893 0.450355 -0.609446 0.551301 0.566369 0.832991 -1.0047 -0.0826351 -0.55413 -0.61925 0.568563 0.246681 -0.0504283 -0.733065 0.924723 -0.254344 -0.329557 0.978812 -0.298111 0.198426 -0.149762 0.400677 0.341765 -0.344052 -0.0267823 0.155579 -0.480054 -0.532687 0.292232 0.72577 0.00425487 -0.442412 -0.340935 -0.519413 -0.657654 0.746368 -0.946713 0.0840588 0.130613 -0.534376 0.280856 0.435538 -0.457052 0.575637 0.730386 0.412671 -0.428598 -0.521305 -0.0135253 0.503882 0.642059 -0.183554 1.03184 -0.747815 -0.183602 0.368132 0.41025 -0.504896 -0.915845 0.315378 -0.287868 -0.0935731 -0.742113 -0.960004 0.970881 0.840092 0.687568 0.759964 0.368711 1.01164 0.226619 -0.4655 -0.0502859 0.543582 -0.625009 0.233783 0.543259 -0.372182 0.322001 -0.0924918 -0.741561 0.0905354 -0.582641 -0.0578424 -0.70548 -0.992044 0.923147 0.595016 0.842766 0.457939 -0.853878 -0.988134 0.109278 0.204444 -0.251701 -0.436394 -0.677952 -0.969501 -0.324015 -0.0978343 0.565215 0.317907 0.199479 0.100106 0.592166 -0.730249 -0.584585 0.0296653 0.219878 0.487561 -0.455973 0.992397 -0.559936 -0.808152 0.604022 0.864371 0.844852 0.952191 -0.241213 -0.94794 0.836455 -0.239234 -0.840517 -0.96629 0.805332 -0.987802 -0.581223 0.107878 0.417509 -0.960291 -0.507329 0.532031 -0.666576 0.271472 0.458035 0.940346 -0.254224 -0.931877 0.215369 0.948492 -0.0100031 -0.738339 0.0970458 0.89618 0.682233 0.779705 0.295088 -0.810029 -0.769075 -0.584279 -0.898167 0.454991 -0.0502787 0.568328 -0.808244 0.727969 0.129959 -0.220963 -0.203254 0.917979 -0.196153 -0.331046 -0.640132 -0.292781 -0.382522 -0.736009 -0.631499 0.632001 -0.767213 -0.06947 0.308214 0.529417 -0.0851661 -0.647964 0.219755 0.899413 0.404804 0.000159602 -0.456499 0.744513 -0.0804809 -0.887274 -0.397185 -0.776595 -0.736519 -0.303742 -0.170482 -0.138559 -0.0268853 0.983435 -0.0905843 0.538953 0.805738 0.0517863 0.956756 0.751205 -0.346108 -0.444717 -0.336293 0.847928 0.241882 0.441665 -0.964085 0.863473 0.747792 -0.338443 -0.573406 -0.298562 0.243552 0.465638 0.812805 0.805001 -0.453304 0.0160794 -0.40397 0.293981 -0.721538 -0.458855 0.168994 0.636805 0.532603 -0.655265 -0.633912 -0.981137 0.557946 -1.00134 0.752899 -0.692386 -0.611505 -0.585622 0.335162 0.366439 0.0404766 -0.974034 -0.688465 -0.258488 -0.592084 0.420606 0.689754 0.103708 0.497536 0.935713 -0.168517 0.917068 0.865094 -0.909154 -0.765587 -0.122248 -0.515961 0.296918 0.1773 0.0436972 0.305383 -0.701084 -0.9714 -0.151308 0.121107 0.429316 0.815548 -0.881029 -0.877269 -0.800198 0.574961 0.0987339 0.631663 -0.764693 -0.70822 -0.972642 -0.775498 -0.25617 0.677894 -0.287334 -0.842378 -0.189602 -0.358067 0.856741 -0.858743 -0.835245 -0.797297 0.00392512 0.865424 -0.108111 0.77825 -0.109017 -0.817322 0.503355 0.0098981 0.168683 -0.964022 -0.162771 0.350748 -0.383757 0.952184 0.217146 0.873545 1.00015 0.10323 -0.354979 0.047941 -0.206911 0.663151 -0.392592 -0.906093 -0.887208 -0.216251 -0.931218 -0.360788 0.474248 0.612242 -0.472085 0.0521936 0.0356494 0.674946 0.847773 0.17123 -0.761553 -0.938787 0.0752615 0.37749 0.634582 0.00926472 0.806733 -0.036377 -0.042857 0.224587 -0.502202 0.568648 -0.254391 0.182746 0.795236 -0.900108 0.346148 0.0972459 -0.584216 -0.764997 0.156305 -0.500345 -0.475618 0.102666 0.785764 0.881162 -0.88758 -0.10275 0.170121 -0.238922 -0.629112 -0.0828047 0.17445 0.907078 -0.116045 -0.743271 -0.238301 0.302605 0.465319 -0.557597 0.360317 -0.250725 -0.250968 0.786978 -0.594825 0.864669 0.122254 -0.0299012 0.545531 -0.0159401 0.408493 -0.513743 0.957823 -0.872609 -0.827939 0.964909 0.561302 -0.837824 0.188003 -0.433646 0.43867 -0.248846 0.917427 -0.0501232 -0.877458 0.142688 -0.46567 -0.280573 0.616514 -0.685651 -0.85856 0.0209183 -0.563751 0.476047 0.889272 -0.363917 -0.391053 0.64022 0.704803 -0.533665 -0.683025 -0.0140878 0.0739261 0.972538 -0.203196 0.440089 0.113742 -0.834893 0.892019 0.862301 -0.568943 0.0122889 0.351448 0.761239 -0.541538 -0.886286 0.379038 -0.853162 -0.816097 -0.0774433 -0.47065 -0.551205 -0.464833 -0.417332 -0.619987 -0.48191 -0.469588 0.892409 -0.185427 -0.203018 0.71344 -0.0533717 -0.181049 0.959628 -0.323207 -0.272456 0.175394 -0.440679 -0.732052 0.778593 -0.211083 -0.77367 -0.678157 -0.234154 -0.443222 -0.262672 -0.529116 0.0731694 0.783047 0.779925 -0.894157 0.117436 -0.606996 0.504316 0.533862 -0.590158 -0.492046 -0.503449 -0.863366 0.0555363 -0.447447 -0.365866 -0.811488 -0.642119 0.417696 -0.478828 -0.894216 -0.177694 -0.416735 0.92347 0.867315 0.862299 -0.952174 -0.85992 0.906073 -0.412929 0.65657 -0.413306 0.504423 0.543601 0.883291 -0.289737 0.647495 0.323285 -0.0266881 -0.758701 -0.0446772 0.79605 -0.640916 0.183815 0.183194 0.544138 1.02114 0.243404 0.312042 -0.600648 -0.98347 -0.946775 0.773956 0.46368 -0.173754 -0.898791 -0.218592 0.415202 0.969753 0.0478151 0.698823 0.32439 0.702254 -0.470172 0.751132 0.659247 -0.739776 0.699734 0.669274 -0.189984 0.147172 0.11395 0.696643 -0.612157 -0.278984 0.573698 0.242172 -0.352646 0.0353249 -0.899934 0.755279 0.138391 0.479593 0.604055 0.588732 0.1603 0.683199 0.281268 0.434726 -0.427903 -0.526559 -0.784266 -0.508331 0.14168 0.134956 -0.723524 -0.20468 -0.780707 -0.928769 0.555304 0.550935 -0.552673 -0.787323 0.568247 -0.877422 0.224042 -0.927707 0.697692 0.303953 -0.460579 0.140152 0.251802 -0.860421 -0.980373 -0.892407 0.345349 0.120532 0.877358 -0.715831 0.839413 -0.236578 0.494734 -0.961438 -0.88928 0.0748461 0.612481 0.6782 -0.76485 -0.618375 -0.188424 -0.71933 0.756009 0.903744 0.0732202 -0.519902 0.96916 0.624189 0.00629175 -0.099097 0.250766 0.744667 0.774196 -0.342545 -0.440044 -0.341433 0.0520236 -0.559923 0.326016 0.0407677 -0.19616 0.732463 0.180824 0.509698 0.841493 -0.0135867 0.225404 0.0481324 0.516123 0.0341658 0.688228 -0.915939 0.899527 -0.0504864 0.976064 0.262103 0.175066 -0.472173 0.623625 0.584643 -0.441064 1.03017 0.854071 -0.137033 -0.787031 -0.761349 0.144569 -0.682461 0.69756 -0.662691 0.17408 -0.21078 -0.0850213 0.315538 -0.0992224 0.345535 -0.489188 0.976709 0.454546 -0.881138 0.964105 -0.175825 -0.82298 -0.0562805 -0.861481 0.485133 0.847138 -0.585944 -0.589416 0.828354 0.269536 -0.260851 -0.277927 0.838619 0.545674 0.796335 0.939907 0.19404 -0.212891 0.691887 -0.512801 0.921059 -0.198359 -0.978695 0.616933 -0.461387 -0.171873 0.664117 0.715178 -0.841576 0.77321 -0.25289 0.733964 0.350561 0.782115 0.937131 -0.332919 0.098907 0.482655 0.999799 -0.787439 0.695491 0.557422 -0.785652 -0.451741 -0.704096 -0.319925 0.770012 0.689291 -0.810868 -0.383889 -0.225437 0.0869374 0.287147 -0.148249 0.762889 0.78661 -0.167838 -0.784381 -0.736855 -0.233288 -0.261575 0.241826 0.620944 -0.851139 -0.603011 -0.0700916 -0.892537 0.850258 -0.656449 -0.237852 -0.820865 -0.215064 -0.12371 -0.156822 -0.641065 0.686118 -0.442019 -0.587493 -0.951042 0.518011 0.666476 0.846985 -0.920615 -0.516022 -0.167579 0.146182 0.604047 0.081339 0.83585 0.144294 0.0514239 0.109123 -0.906204 0.29715 -0.386251 0.257484 0.50654 0.607755 0.92173 -0.225554 1.01534 -0.564497 0.177209 0.0463538 -0.139333 0.522534 0.265881 -0.0228049 0.940917 0.574193 0.31446 0.262975 -0.278475 0.924132 -0.854566 0.346118 -0.738094 0.0445903 -0.345402 0.733891 -0.83265 0.225979 -0.0219117 -0.877959 0.817314 0.610474 -0.231134 -0.933164 0.411086 -0.274914 0.830937 0.834288 -0.221112 -0.899302 0.283158 -0.777561 0.522205 0.838968 0.639476 0.684593 -0.500834 -0.298021 -0.622763 -0.883699 0.322454 0.0726721 -0.565608 -0.34275 0.404112 0.263073 -0.411402 0.736063 -0.824432 1.00325 -0.768719 -0.295187 -0.3949 -0.426397 0.895391 0.722339 -0.109777 0.941328 -0.781339 -0.86621 -0.252014 -0.685577 0.0366724 0.584685 0.142372 0.377631 -0.0468215 0.235094 -0.683488 0.156332 0.0851466 0.354431 0.77745 -0.122855 -0.74455 0.27151 -0.375621 0.948611 -0.462045 -0.12415 0.623639 0.451385 0.425998 0.861686 0.669123 0.510948 0.0483311 -0.694912 0.935812 -0.945736 0.979057 0.0541529 -0.218446 0.268675 -0.39393 -0.139904 0.519038 -0.224266 0.797957 0.480632 0.870926 -0.480613 -0.104627 -0.116507 0.100684 0.000388735 -0.572466 0.336644 -0.432601 -0.945178 0.795202 -0.196766 -0.0153865 0.784328 0.516315 0.934166 -0.906387 -0.583577 0.87225 0.410309 -0.524366 0.109163 -0.939636 0.192443 0.119915 -0.40811 -0.812658 0.674761 0.524823 -0.581878 0.19728 -0.399 0.601055 -0.275461 0.0585762 0.696033 -0.281471 0.431949 0.0514976 -0.0720336 0.912162 0.0390327 -0.170943 -0.576823 -0.875804 -0.498064 -0.318782 0.19898 -0.354916 0.529373 0.343098 0.719022 0.216652 -0.669372 -0.23601 0.649816 -0.530175 0.395317 0.557964 0.41643 0.414344 0.622326 -0.521143 0.173319 -0.775638 0.478286 -0.860418 0.290395 0.652375 -0.451317 0.829767 0.134771 -0.905413 -0.450952 -0.592697 -0.0903154 0.590725 0.91609 -0.167931 0.834729 0.932087 0.465949 -0.318198 -0.304758 -0.480431 -0.667488 -0.29171 0.389339 -1.04506 -0.377072 0.754549 -0.531732 -0.0775356 -0.646152 0.883883 0.0737403 -0.780337 0.869281 -0.553466 -0.516677 -0.605515 0.384989 -0.172388 -0.365151 -0.0077077 0.020281 -0.312709 0.767758 -0.0794708 -0.0894686 -0.29201 -0.1763 0.885045 -0.975328 -0.805194 -0.141121 0.554544 -0.00290852 -0.820913 0.111759 -0.254299 -0.540278 -0.345653 0.428009 0.606729 0.584727 -0.363765 -0.0733685 -0.294437 -0.431623 -0.822529 0.489007 0.161144 -0.647662 -0.396549 -0.862788 -0.744973 0.518874 -1.02525 0.841729 0.100776 0.202173 0.111972 0.186213 -0.709274 0.808298 0.394674 -0.748641 -0.269749 -0.341632 0.739206 -0.776815 -0.95116 -0.408888 0.457983 -0.332516 0.216439 0.99078 0.553816 -0.596817 0.787166 -0.664149 0.571497 0.514214 0.295335 0.722845 -0.832839 -0.130476 -0.897852 0.147647 0.946368 0.00434368 -0.625016 -0.304304 -0.790063 0.387202 0.867269 0.920643 -0.520459 -0.066244 0.810691 0.000849224 -0.133881 0.118619 -0.565876 -0.0442311 0.042342 0.216746 0.0872341 -0.441515 0.34576 -0.777137 -0.00858116 0.719702 0.909587 -0.283564 -0.63753 -0.179136 0.476324 -0.467326 0.354372 -0.317988 0.864351 -0.641925 0.40939 -0.397917 -0.77775 -0.685543 -0.987733 -0.64977 -0.492119 -1.17847 0.164425 -0.959093 -0.283031 -0.280402 0.694612 0.437202 0.130014 0.654457 0.165767 -0.143566 0.538988 0.755345 -0.510779 -0.371837 -0.510184 -0.549199 0.132613 0.13156 -0.773727 0.0245341 -0.259693 0.2618 0.0205322 0.00325307 1.06722 0.255099 0.306797 -0.518107 0.642379 0.131994 -0.472475 0.521663 0.0834324 -0.19357 -0.460282 0.851065 -0.284238 0.526504 0.824239 -0.889415 0.309944 -0.200428 0.638301 0.678095 -0.498605 -0.654221 -0.835814 0.380612 -0.425941 0.974886 0.302559 0.972476 0.998999 0.761293 0.513034 -0.375485 0.33966 0.984776 -0.625676 0.86216 -0.112267 0.122613 -0.725475 -0.136503 -0.75543 0.2987 -0.689136 -0.204884 -0.0362461 0.515979 -0.795135 0.57775 -0.0647983 -0.202268 0.853102 0.449945 -0.606554 0.556011 -0.0400969 0.602907 0.627071 -0.617742 -0.06756 -0.629432 -0.70494 -0.529929 0.173471 -0.208955 0.652673 -0.403356 0.236677 0.956654 -0.189238 0.630012 0.206302 -0.79236 -0.00389575 -0.272775 -0.246114 0.158055 0.531158 -0.463403 0.355698 -0.229235 0.154783 0.747044 0.869241 0.0768221 -0.973205 -0.978324 -0.665054 -0.589705 0.240463 -0.811337 0.0782277 0.187179 -0.34042 -0.633487 0.674783 0.579188 -0.435239 0.931996 -0.912638 0.243188 -0.622341 0.765072 0.337302 -0.224596 -0.0915261 0.525013 0.0508349 -0.690411 -0.630777 0.530646 0.777229 -0.152638 1.00924 -0.976801 0.892008 -0.38949 0.194118 0.536659 -0.675897 0.230919 -0.509244 -0.247799 0.285069 0.383236 0.232872 0.657269 -0.304745 0.334276 0.868097 -0.921867 -0.928572 0.153286 -0.535858 0.902804 -0.187684 -0.324781 0.422491 0.896764 -0.606056 -0.941307 -0.0534934 -0.38584 -0.247471 0.000870144 -0.0162969 -0.338197 0.288862 0.178515 -0.36578 -0.110532 -0.382275 0.898033 0.175054 0.18658 0.566265 0.97066 -0.604244 -0.276179 0.661491 0.296134 -0.478619 -0.26548 0.598104 -0.613124 0.235444 -1.01622 -0.938369 -0.732904 -0.134411 -0.559326 -0.604144 0.615037 -0.00213102 -0.115591 0.809053 0.881618 0.0675604 0.807539 0.151835 0.320449 0.461876 -0.558644 0.224924 0.124985 -0.574151 -0.582095 0.230811 -0.333087 0.998634 0.186178 -0.336123 -0.904735 -0.464403 -0.059141 -0.110956 0.254683 -0.301518 -0.701895 1.06962 -0.305772 0.589816 0.789061 0.953737 -0.97199 0.253218 0.948979 0.449452 0.315724 0.03786 0.507545 -0.527416 -0.644328 0.751013 -0.425042 0.0070076 -0.865871 -0.553619 0.181098 0.0365277 0.82778 0.713353 -0.572911 0.933644 0.142518 0.555421 0.262397 -0.215879 -0.515197 0.626524 0.799963 -0.954524 0.482303 0.955713 0.523564 0.0334826 -0.923792 -0.826387 0.0858493 0.140401 -0.612164 -0.896786 -0.849606 -0.116654 -0.132657 -0.515899 0.909406 -0.971264 0.825591 -0.749939 1.06681 -0.332984 0.387663 1.07621 0.878567 -0.245501 -0.743674 0.667112 -0.264229 -0.315185 -0.649241 -0.161997 0.226716 -0.050562 0.77203 0.687059 -0.739998 0.0860279 -0.0863701 -0.244122 -0.27971 0.796804 -0.363778 0.369498 -0.371471 -0.0437581 -0.643121 -0.545626 -0.849284 -0.45562 -0.259206 0.155608 -0.454455 -1.08477 -0.36895 -0.494004 -0.894229 0.948598 -0.497934 -0.510856 0.943719 0.00538983 0.842821 -0.169471 -0.514141 0.143938 -0.323258 -0.862393 -0.183453 0.504157 0.499507 0.559216 -0.982393 -0.239752 -0.798962 0.800778 -0.428888 0.726549 0.325704 -0.539113 -0.945732 -1.0064 -0.93008 -0.577222 -0.32484 -0.47559 0.877023 0.354936 -0.16442 -0.060876 -0.788819 -0.535011 -0.595397 -0.61709 -0.555243 0.0123158 0.384663 -0.956037 -0.578671 0.0715084 -0.0615944 0.928359 0.528614 -0.685439 0.303124 0.367793 0.721371 -0.697062 0.715216 0.589508 -0.850156 0.534831 -0.368881 0.943136 0.345073 0.162343 -0.702878 0.634915 -0.826564 0.711297 -0.938493 0.839606 0.0995527 -0.949258 0.167652 -0.327622 -0.646563 -0.444036 0.114652 0.242934 -0.0544262 -0.746228 0.379884 -0.725713 -0.835937 0.708781 0.445461 -0.591226 -0.277623 0.657479 0.665375 -0.471672 -0.64736 -0.420987 -0.0262623 0.463983 -0.711375 0.0360351 0.757144 -0.610431 -0.697197 0.670107 -0.768085 -0.771722 -0.0107773 0.457463 0.651021 -0.238603 -0.62921 0.0215958 0.462891 0.528498 0.218555 -0.415316 -0.039697 -0.0079535 0.370752 -0.0170925 -0.767919 -0.764636 0.553754 -0.429736 0.557583 0.356317 -0.563121 0.241572 0.713057 -0.226118 -0.351986 0.860177 -0.716834 0.0788535 0.186431 0.226819 0.0125111 -0.814742 -0.470756 -0.776516 -0.306947 0.541619 0.00653111 -0.725209 -0.731497 1.00243 0.364319 0.872704 -0.376384 -0.386691 0.698276 0.452397 0.123893 0.444547 -0.224612 0.603501 0.385406 -0.507905 -0.400193 0.693474 0.924009 0.0594417 0.916692 0.811668 0.146484 0.0514597 -0.865039 -0.742378 0.479331 0.176656 0.399148 0.107406 0.792206 0.993475 -0.23976 0.870457 0.75639 -0.641975 -0.153202 0.531961 -0.518648 0.179345 0.724803 -0.690035 -0.0718635 -0.430982 0.598968 -0.610076 0.54745 -1.04903 -0.547296 0.391132 -0.931857 -0.532573 0.660839 0.136171 -0.0132991 -0.552833 -0.819434 -0.309315 -0.907969 -0.59255 0.277968 -0.801594 -0.840442 0.766867 0.871738 -0.306824 -0.557165 -0.154552 0.691323 0.341985 0.4407 -0.378144 -0.232849 0.719093 -0.630756 0.0666628 0.492918 0.392251 0.722024 0.820152 0.614552 0.708129 -0.0560555 0.483975 -0.285105 -0.526908 0.887582 -0.769034 0.540942 -0.376829 0.420587 0.608803 -0.867957 -0.462146 0.458403 -0.399408 0.797318 0.922745 -0.118028 0.79405 0.0945503 0.722952 -0.23486 -0.758165 0.361764 0.13587 -0.229078 0.579755 0.278469 -0.862751 -0.161407 0.177437 -0.144977 -0.491975 0.141051 0.612207 -0.772232 -0.661083 0.665081 0.767746 0.330586 0.687015 -0.801601 -0.333773 0.607918 -0.830576 -0.00762325 -0.561493 0.647299 0.697103 -0.550712 0.483467 -0.868286 1.03024 -0.791122 -0.586482 -0.856255 -0.289482 0.854394 0.586825 0.699649 0.522384 -0.635628 0.712924 -0.703836 -0.675593 0.729218 0.602038 0.247433 0.017402 0.451622 -0.314178 0.51979 -0.384163 0.53505 0.583969 0.112293 -0.809826 -0.0993942 -0.583067 -0.264479 -0.210549 -0.645526 -0.882325 -0.409647 -0.0678277 0.868853 -0.899216 0.868119 0.525612 0.236795 -0.421153 -1.12072 -0.933132 -0.571746 0.0211784 0.125047 0.242793 -0.332672 -0.443208 0.473582 0.344538 -0.84724 0.952332 0.939984 -0.289368 0.434764 -0.572101 0.913425 -0.610127 0.304711 0.91297 -0.916612 0.701589 0.797165 0.934676 -0.366646 -0.476697 0.947039 0.290811 -0.107882 0.391213 0.156896 0.0749079 0.946874 -0.713278 -0.170549 0.446827 0.550036 0.245029 -0.124651 -0.549263 0.792792 -0.598063 -0.0316583 -1.02442 -0.899532 0.320535 -0.671824 0.952935 0.683659 -0.375058 -0.221081 0.287032 0.916101 0.341545 0.00286874 0.17312 0.761252 0.328135 0.713482 -0.22617 -0.597287 -0.305896 -0.278142 -0.917083 0.941109 -0.826525 0.675209 0.657644 0.955366 0.245033 -0.655754 -0.117267 0.870021 -0.83983 0.585666 0.989727 -0.760442 -0.958868 0.203037 0.692616 0.338766 -0.779987 0.782524 0.919058 0.651184 0.432397 -0.670054 -0.403942 -0.600827 -0.898409 0.370251 0.171739 -0.00344697 0.351038 -0.855873 -0.424378 -0.477093 -0.253163 -0.408707 0.1553 0.134437 0.226553 -0.475432 -0.699135 0.467883 0.0996231 -0.637516 -0.76296 -0.278949 -0.332439 0.464518 0.494685 0.398474 -0.357809 -0.249349 1.01744 0.184135 0.184562 -0.305541 -0.47953 0.510302 0.402904 0.362601 -0.786401 -2.69204e-06 0.0365147 -0.314571 0.960195 -0.416524 0.969426 0.0576402 -0.73835 0.502564 -0.153595 0.930574 0.644883 0.883842 0.50471 -0.591281 -0.756794 -0.577702 -0.334916 1.04846 -0.616021 -0.469475 0.931346 -0.408205 0.529534 1.08709 0.989343 -0.527582 0.911354 -0.766632 0.340942 0.0735352 0.880785 0.0171931 -0.92097 -0.259759 -0.170228 0.899833 0.627441 1.0234 -0.0369623 0.271919 -0.182238 0.174517 -0.454061 0.594313 0.707716 -0.0424547 -0.560799 -0.127769 -0.870882 -0.51778 -0.157111 -0.439732 -1.03379 0.0159191 -0.434509 -0.173273 -0.119333 -0.656569 0.442722 0.560996 0.0483615 0.503901 -0.563752 -0.490678 0.126297 -0.0812182 -0.0756654 -0.211669 -0.810199 -0.331474 0.159068 -0.0159386 0.0839263 0.480117 0.894744 0.30492 -0.104152 0.0525438 -0.278535 0.452076 0.127198 -0.843455 -0.353314 -0.974764 -0.121248 -0.768873 0.377403 -0.0421663 -0.541965 -0.656508 -0.240071 0.513055 -0.321919 0.72631 -0.72428 -0.784008 0.826992 -0.426782 -0.689865 -0.421849 0.516377 0.382798 0.228345 -0.799458 0.617251 0.462645 -0.0271397 0.559643 0.45211 -0.224706 -0.0323176 0.0896512 -0.823196 0.225302 0.760818 -0.546101 -0.609816 -0.715976 -0.374904 0.0325118 -0.961142 0.285826 0.699781 0.705931 -0.848581 -0.699037 0.420726 -0.466436 0.264438 -0.737553 0.693819 -0.820493 0.570653 0.65844 -0.292797 -0.659784 -0.116491 0.10202 0.832616 -0.98042 -0.542529 0.818542 0.570441 0.304683 -0.376 0.23938 0.19597 0.319576 0.492253 -0.713657 -0.0963242 -0.088679 -0.571904 -0.486724 -0.297036 0.780487 0.615661 0.895223 -0.224919 0.581323 0.529701 0.853517 0.866627 0.0431876 0.316216 -0.196812 0.520572 -0.31539 -0.744768 -0.306706 0.737841 -0.726249 0.0946692 0.153757 0.40271 -0.55772 -0.156866 0.985953 0.567008 -0.679806 0.254292 0.602596 -0.0120436 -0.856656 -0.553313 -0.65494 0.413916 0.292846 0.703324 -0.588877 -0.217432 -0.841664 0.710233 0.22098 0.838763 -0.162515 -0.731014 0.166283 0.483634 0.197684 0.224467 0.563232 -0.647155 -0.707224 0.117806 0.698927 0.382946 0.220935 0.828262 -0.199012 0.470753 0.769795 -0.318216 0.266839 0.823555 -0.652086 0.67967 -0.913241 -0.740425 0.424765 -0.13271 -0.794801 -0.254023 0.51472 -0.747311 0.584629 -0.605312 -0.358016 0.991473 0.404788 -0.477907 0.617563 -0.773284 -0.322373 0.890793 0.504609 0.877757 -0.907038 0.648054 -0.426933 0.774655 0.514477 -0.875417 -0.0948842 0.958819 0.998732 0.994838 -0.622271 0.96245 0.63119 0.459277 -0.463377 -0.870367 0.399837 0.77538 -0.775793 -0.956463 -0.43903 0.538196 0.884142 -0.86246 0.180918 0.487128 -0.922384 0.448025 -0.118096 -0.888431 0.0794083 -0.0142889 -0.904369 -0.304133 -0.243474 0.839966 -0.690272 0.926415 -0.410174 0.351799 -0.133226 -0.511129 -0.342099 -0.0296083 -0.117844 -0.360427 -0.556585 0.376131 0.084934 -0.768903 -0.489289 -0.437783 0.386151 0.76664 -0.871432 0.891742 -0.850219 0.555686 0.209522 0.133642 0.0456442 0.405064 0.774879 0.348858 0.66643 0.64122 0.254695 0.336684 0.0449543 -0.868094 -0.64856 -0.603601 -0.0212067 -0.82725 0.313512 -0.193925 0.82424 -0.31094 0.887413 0.91041 0.953679 0.246738 0.993795 0.504214 -0.208446 -0.0899294 0.456732 -0.225213 -0.44804 0.968034 0.456032 0.438737 -0.564515 0.341203 0.733696 0.998602 -0.0571473 0.401761 0.901992 -0.785408 0.0733694 0.575122 -0.667754 0.168706 0.250322 0.838999 0.143571 -0.798278 0.299588 -0.692246 -0.950872 1.01047 -0.0718646 0.529019 0.0262243 -0.116993 -0.529464 0.0127065 0.164469 0.972307 0.848987 0.0928352 0.127848 -0.821741 0.281362 0.544582 0.299945 0.33816 0.310144 -0.499889 -0.461856 0.139072 -0.69919 -0.159212 0.0527345 -0.00967507 0.649015 -0.404805 0.597015 0.268398 -0.066517 0.202744 -0.492458 -0.0347115 1.00445 -0.215794 -0.706318 -0.690496 0.302657 0.277993 -0.705311 -0.502883 0.787158 0.0996542 0.848351 0.0824098 0.246032 -0.963455 0.237987 -0.431875 0.465868 1.00936 -0.0257868 0.519483 0.854392 0.281722 -0.413682 0.333693 0.328609 -0.858897 -0.0311941 -0.739276 0.854612 -0.104041 0.0721107 0.218649 0.597185 0.901956 -0.00824396 0.515349 0.84193 -0.799399 -0.146854 -0.812092 0.402583 -0.158657 -0.477956 -0.875392 -0.452738 -0.573844 -0.929889 0.723928 0.425925 -0.953661 0.389532 0.400509 -0.154751 0.289878 -0.79843 -0.417545 -0.501467 0.34703 0.192115 -0.319391 -0.427469 -0.497901 -0.167386 -0.0171476 0.549479 -0.73113 -0.729477 0.0566711 -0.631438 -0.388329 0.923211 0.46295 -0.197105 -0.150007 -0.931055 -0.192693 -0.832462 0.601901 0.984651 -0.852101 0.942955 0.898928 0.768975 -0.621625 -0.558083 0.956293 0.263543 0.0193909 -0.702909 0.247978 0.671186 -0.286726 0.403426 -0.558837 0.389272 -0.826658 0.832902 -0.96513 0.326935 0.979752 -0.306261 -0.806426 -0.870566 -0.458226 -0.471655 0.59436 -0.175781 0.999129 0.989109 -0.898697 0.156353 0.32487 -0.894396 0.185573 0.296634 -0.237485 -0.0553674 0.624034 0.568296 -0.540808 -0.252335 -0.882136 0.113452 0.899559 0.617127 -0.903878 -0.435664 -0.18717 0.998053 0.512525 -0.20663 0.709626 0.542498 0.803982 -0.252497 0.217966 -0.906091 0.0383313 -0.634178 -0.64938 0.0338402 0.98618 -0.356719 -0.487409 0.78901 -0.595923 0.450523 0.497551 0.395001 -0.824792 0.312716 0.76934 0.435422 0.865267 0.281111 -0.646379 -0.905188 0.277534 -0.150389 0.359318 0.838259 0.466721 0.356444 -0.226007 0.960677 0.510027 -0.710577 0.927358 -0.373548 0.668405 0.280416 0.386304 -0.134291 0.605156 0.18248 -0.452303 -0.983541 -0.578129 -0.550254 -0.933051 0.964309 0.0441788 0.497006 0.465589 -0.333778 -0.47087 0.0523989 0.744873 -0.217306 -0.820127 0.518878 0.85948 0.273201 0.838059 0.860263 -0.508971 -0.346121 0.604863 0.475301 0.91898 0.673851 1.00276 -0.848671 -0.513982 -0.220778 -0.84032 0.85521 0.736749 -0.575296 0.134106 0.54168 0.051568 -0.407252 -0.670067 -0.685952 0.43255 0.527067 -0.424072 0.458404 0.93213 0.618278 0.193557 -0.110924 -0.723512 -0.656745 0.8982 0.703406 -0.426357 -0.182068 0.992448 0.171529 0.615324 -0.505032 0.391838 0.522705 -0.621009 0.116731 0.447493 -0.437293 0.102407 -0.634797 -0.6861 0.938613 0.750159 -0.750673 -0.688463 -0.640745 0.0399253 -0.551901 -0.0499618 0.787537 0.525798 0.388987 0.162927 0.361999 -0.277337 0.776256 -0.0519628 0.98933 -0.524971 0.64529 -0.87337 -0.458391 0.445793 0.669651 -0.528452 -0.6262 0.401188 -0.502505 -0.609426 0.996883 -0.575644 -0.285791 0.609772 0.0290071 -0.715526 -0.922177 0.829528 -0.888768 -0.901457 -0.514375 -0.521626 0.106069 0.570153 -0.921937 0.784625 0.0840346 0.823487 0.948626 -0.595519 -0.804993 0.636376 0.69906 0.455669 -0.350653 -0.968872 0.111762 0.682761 -0.448181 -0.00136511 0.165779 0.430987 -0.341334 -0.322896 0.0823122 0.0553543 -0.187038 -0.731822 0.0653762 -0.0237965 -0.396192 0.731565 -0.800791 0.314405 0.349904 0.0871888 -0.364453 0.8146 -0.576796 -0.347664 -0.68446 0.440207 0.352711 0.977874 -0.514602 -0.00355414 -0.178726 -0.00853596 -0.879076 -0.516529 -0.524311 0.345529 -0.162897 0.146326 -0.309377 0.0740322 0.249607 -0.573978 -0.951571 -0.0450849 0.040362 -0.803628 -0.0665687 -0.226512 -0.303437 -0.605697 -0.60327 -0.130474 0.797877 0.0763219 -0.945279 -0.913315 0.300386 -0.408641 0.9005 -0.31354 -0.0950647 -0.10188 -0.876823 -0.954146 0.403909 0.719251 -0.24607 0.195142 -0.964842 0.972496 -0.759929 -0.212223 0.523866 -0.967957 -0.890317 0.703634 0.842074 0.80141 -0.700365 -0.508981 -0.776784 0.295875 0.174641 0.455388 -0.788643 0.716759 -0.0489959 -0.506702 0.890159 0.675724 0.616396 0.0804425 -0.414941 0.592929 0.607662 -0.810506 0.829004 -0.854148 -0.30674 0.368088 0.66525 0.418209 -0.703749 0.659821 -0.0694508 -0.915716 -0.771244 -0.375397 -0.699264 0.683169 0.438363 0.276385 -0.157497 -0.718563 0.896958 0.68138 0.0379736 0.127396 -0.430043 0.192845 -0.667399 0.341302 -0.221465 -0.0737459 -0.587312 0.308159 0.142289 0.116768 0.923302 0.165156 -0.114251 0.525645 -0.697104 0.626366 0.995176 0.718237 0.22417 -0.622972 0.520945 0.1398 0.790144 0.736134 0.0615403 0.920991 0.919877 -0.343268 0.903614 0.453136 0.782769 0.742743 -0.408249 -0.831185 0.819727 -0.0798407 -0.0995947 -0.61332 -0.448973 -0.430058 -0.480952 0.492616 -0.43594 0.124026 -0.994396 0.546148 0.7586 -0.834488 0.788825 -0.763832 0.321329 -0.173222 -0.957459 -0.0798694 -0.292905 -0.78269 0.55295 0.9595 -0.316282 -0.589556 0.792052 0.46468 0.127354 -0.778572 -0.528867 -0.0714915 0.479799 0.401856 -0.834465 0.827951 -0.869842 0.411353 0.935133 0.273548 0.717898 0.996722 -0.975153 -0.0830162 0.127585 -0.560554 -0.154806 -0.940114 0.497887 0.377546 -0.293024 0.534662 -0.546444 0.408549 0.254032 -0.844815 -0.464548 -0.89145 0.917351 -0.860374 0.837642 -0.163836 -0.578495 -0.765022 -0.118695 -0.857252 0.546891 -0.973775 0.567827 -0.635552 0.504742 0.390259 0.571776 0.773283 -0.0816834 -0.235537 0.461316 0.746758 -0.361419 -0.919379 0.873115 -0.223748 0.176269 0.841864 0.668471 -0.144713 -0.650583 0.883899 -0.749606 -0.78046 -0.52343 0.485339 0.512811 -0.890523 0.877948 -0.0798661 -0.00959875 0.39158 -0.506346 0.57784 0.368073 -0.697591 0.377686 0.557311 -0.0795194 -0.545499 -0.738661 0.333782 -0.0939268 -0.193277 -0.433151 -0.868878 0.709348 0.253031 0.393558 0.154497 -0.431964 0.846374 -0.928653 0.666444 -0.620775 0.896218 0.0316644 0.97477 -0.881187 -0.865751 0.279784 0.229372 -0.348594 0.544438 -0.0446132 -0.0761354 0.49298 0.891363 0.266661 -0.648746 0.174207 -0.0169061 -0.627157 -0.287599 0.117457 0.960206 0.668598 0.756072 -0.716815 -0.0729325 -0.0324876 0.346004 -0.146407 0.922117 0.479413 0.345511 -0.0138973 0.549005 0.703959 -0.0405634 -0.133513 0.885813 -0.0867993 -0.219298 -0.874051 -0.213729 -0.97931 -0.341036 0.29709 -0.0760423 0.541119 -0.287457 -0.561051 -0.0337163 -0.173437 -0.199382 -0.054882 -0.765631 0.855653 0.205271 0.126973 0.313407 -0.0130196 -0.546945 -0.406162 0.772547 0.934722 0.672687 -0.222386 0.825225 0.998247 -0.555491 -0.70934 -0.599522 -0.622815 -0.08459 -0.19836 0.844029 0.227209 0.39876 -0.0639982 -0.345449 0.294452 0.018378 -0.757426 -0.417021 -0.278531 -0.149449 -0.791224 0.446166 -0.630488 0.539584 -0.269032 -0.122292 0.702617 0.898478 0.322485 0.873749 0.929252 -0.102972 -0.00273699 -0.527805 -0.0164831 0.0522529 0.253081 0.571813 0.96432 0.046126 0.850315 0.440323 -0.189813 -0.0429216 0.202343 0.170804 -0.253264 -0.970172 0.619178 -0.853617 0.250361 0.678033 -0.986083 0.961951 -0.93803 -0.50015 0.439091 -0.0842391 -0.368662 -0.596173 -0.824392 0.529024 -0.404071 0.243355 0.624917 -0.0104773 0.0288075 0.243215 -0.171262 0.190687 0.00884428 -0.612975 -0.31355 0.0283527 0.539404 -0.544812 0.342306 0.253345 0.678147 -0.317711 0.877549 0.321227 0.282631 -0.262791 0.142692 0.593262 -0.15766 -0.108198 -0.612107 0.573211 -0.337379 1.05032 -0.410501 0.695 0.368755 0.911408 0.732229 0.624121 -0.462766 0.38816 0.553942 -0.00922466 0.502254 -0.326026 -0.0410564 -0.770717 -0.0626498 -0.496959 0.885701 0.846876 0.206055 -0.220893 -0.55042 0.349943 0.279182 -0.0271929 -0.289751 -1.1091 0.365141 -0.55866 0.711698 -0.831211 0.0941703 0.0835626 0.364588 0.235716 -0.164898 0.107784 -0.737657 -0.597266 -1.25698 -0.0832555 -1.01346 -1.08175 -0.462603 -0.179251 -0.862723 -0.0543676 0.811151 -0.926304 0.482754 0.662184 -0.226233 -0.385784 -0.864386 -1.4267 -0.463289 -0.777284 1.07966 0.941579 -0.77194 -0.437597 -0.550803 -0.0982334 0.760516 0.377358 -0.00293901 -0.645475 -0.742374 -0.730625 -0.514804 0.664319 1.17577 -0.0184125 0.418035 0.875106 0.181215 -0.465305 -0.312543 0.109875 0.551604 0.14127 -0.476789 0.264238 -0.556706 0.439762 -0.152617 0.212426 -0.898904 -0.0692013 0.842863 0.192783 0.329046 0.211545 0.09685 0.218642 0.931824 -0.36693 0.976688 0.7664 -0.577307 0.257546 -0.0493939 -0.0805475 0.34537 -0.767874 -0.660635 0.063881 0.779083 0.160206 0.495371 -0.65634 0.536851 -0.301726 0.482803 0.514695 -0.925454 -0.373104 -0.65696 0.658749 0.965641 0.402519 -0.000107251 0.0609304 -0.0786998 -0.9581 -0.723494 -0.941432 -0.392708 -0.701397 0.349835 -0.140161 -0.0126968 -0.911867 0.979654 0.618944 -0.062232 -0.0931868 0.918534 -0.245581 -0.404289 -0.78321 -0.505235 -0.820635 0.0700747 -0.116394 -0.0647276 0.402538 0.476075 -0.0345343 -0.214706 -0.186336 0.317377 -0.576727 0.317721 -0.698783 -0.715681 -0.271858 0.687725 -0.349759 -0.633309 0.718986 -0.622361 0.630273 -0.323997 0.384706 0.126291 0.684578 -0.976919 0.852534 0.712427 0.799621 -0.925076 -0.595499 0.701377 0.448474 -0.882936 0.529978 -0.468184 0.209267 0.212118 -0.491339 0.222781 -0.688454 -0.0568719 -0.345335 0.966745 0.110704 0.246326 -0.850537 -0.9992 -0.470201 -0.147799 -0.789986 -0.555996 -0.770458 -0.100536 -0.86433 -0.0454686 0.818501 -0.174064 -0.851811 -0.714916 0.251002 0.283527 0.228162 -0.80093 0.78644 0.878593 0.465147 -0.0193572 0.546606 0.00412079 -0.920829 0.164656 0.00660571 0.896207 -0.182745 -0.318621 -0.971497 -0.646523 -0.875087 1.02245 -0.278987 -0.646602 0.25032 0.910612 0.730964 0.638283 -0.543052 0.904554 -0.630946 -0.148425 0.673864 -0.748261 -0.363448 0.273418 0.778926 0.151292 0.36568 -0.380658 0.54274 -0.908814 0.290224 -0.477604 0.732574 -0.823919 0.658601 0.207545 -0.0512784 0.714351 0.362062 -0.72625 0.966734 -0.42176 0.760053 -0.161645 -0.555244 -0.222412 -0.0219047 0.892928 0.878575 -0.356647 0.0893723 -0.810312 0.554849 0.00524009 0.701336 -0.380255 0.172401 0.930171 -0.797219 -1.02581 0.0525917 -0.577314 -0.687364 0.367131 -0.837534 0.216569 -0.065051 -0.676941 -0.302486 0.352492 0.232777 -0.618668 -0.713132 -1.1037 -0.00508556 0.842428 -0.705506 0.581616 -0.427266 -0.621737 0.0492529 -0.278616 -0.398352 -0.625133 -0.0308874 -0.604196 0.685473 -0.559681 -0.484385 0.0353568 0.260573 0.534361 0.55573 -0.77143 0.116754 0.0764864 0.754506 -0.960304 0.0604999 0.877339 0.172029 -0.627985 0.445523 0.825598 -0.738728 -0.406153 -1.02699 0.609644 -0.671106 0.538478 -0.44596 0.601289 0.397348 -0.442625 -0.667178 0.533725 -0.282212 -0.459218 0.00277976 -0.86194 0.782389 -0.379109 0.953349 0.717631 0.978001 0.335421 0.382029 0.451154 0.59154 -0.840385 -0.595414 -0.278331 -0.535466 -0.433063 0.651412 -0.210717 0.433532 -0.172148 -0.336196 -0.140344 0.386699 0.938487 0.259267 -0.565851 0.607349 -0.98355 0.375689 -0.611509 0.874714 -0.87128 -0.275152 0.0510669 0.494077 -0.784947 0.33488 -0.659285 -0.556982 0.879348 0.708778 -0.300204 -0.0537778 -0.254067 0.436296 0.257753 -0.676314 -0.881007 -0.140443 0.125966 -0.608104 -0.946114 -0.195827 0.425284 0.872338 0.464899 0.222185 -0.170014 -0.702704 -0.00553603 0.807739 -0.601688 0.826713 -0.00545817 0.888533 -0.431856 -0.476135 0.797869 -0.753035 -0.139294 -0.0544883 -0.605411 -0.6086 -0.789622 -0.398472 -0.555586 -0.793697 -0.609979 -0.915016 0.703667 0.455801 -0.885523 0.180251 -0.383674 -0.510383 -0.444715 0.0488652 0.489543 -0.869314 0.946512 0.592276 -0.625665 -0.410067 0.847973 -0.144462 0.176986 0.172287 0.229064 0.147569 -0.773991 -0.100674 -0.771945 0.862863 0.906456 0.0219394 -0.161586 0.869153 -0.244061 -0.242069 -0.833156 -0.993344 0.741073 -0.862382 0.634092 -0.839192 0.646932 -0.35306 -0.471732 0.918051 0.0853059 -0.336991 0.828352 -0.0140348 -0.300795 -0.360078 0.12171 0.721857 -0.902392 -0.875046 -0.326824 0.254359 -0.661471 -0.889268 -0.817294 -0.488369 -0.786761 -0.00437867 0.446852 0.236562 -0.364764 1.00482 -0.688697 0.211954 -0.256087 -0.131126 0.837117 0.483013 -0.886432 0.478769 -0.613234 -0.238045 0.45643 -1.04656 -0.192526 0.876986 -0.604697 -0.427528 -0.607922 -0.348259 0.453911 -0.462405 0.150731 0.396086 -0.180082 0.255675 0.0451237 0.261785 -0.222047 0.77571 0.963706 0.277256 -0.137722 -0.0593169 -0.460241 0.578964 -0.332655 0.764355 -0.510378 0.864061 0.389444 -0.276641 0.283441 -0.655638 -0.400814 0.370394 0.671665 -0.800095 -0.819699 -0.285765 0.0598613 -0.872119 -0.461883 -0.0836084 0.0580512 -0.697835 -0.375036 0.433506 -0.0167397 0.0292279 -0.0920468 0.0842533 -0.849216 -0.0613163 -0.823676 0.367451 -0.488832 0.790647 0.812685 -0.756259 0.952047 -0.0766211 0.179938 -0.914227 0.871493 -0.517348 0.206766 0.392666 0.468109 0.742124 -0.129691 -0.621836 -0.130535 -0.390915 1.00122 0.818383 0.903096 -0.231324 0.502002 1.09635 0.854301 -0.282033 0.753655 0.190831 -0.296346 -0.646346 0.94518 0.459159 0.555501 -0.923807 1.01783 0.371836 0.87429 -0.598169 0.641286 -0.010359 0.768884 0.256682 -0.347192 0.727563 -0.124103 -0.231693 -0.621168 0.527851 0.262965 1.08803 0.43174 -0.730273 -0.371086 0.410521 -0.277189 -0.879269 0.616789 0.889324 -0.247786 0.541744 0.236743 0.347821 0.390392 0.507778 0.0131912 -0.392219 0.246233 -0.797499 -0.50818 -0.212052 -0.307894 0.291732 -0.715795 0.404807 0.223823 0.176341 -0.666054 -0.365937 -0.036622 -0.358027 -0.527696 0.550985 -0.213184 0.127642 -0.0661305 0.42429 0.527564 0.538131 -0.62966 0.000770956 0.482478 -0.0806309 -0.838948 0.478802 0.487773 0.647577 -0.692341 1.01177 0.136207 -0.0616423 0.846952 0.0547001 0.691637 -0.914705 -0.359596 -0.526646 0.715173 -0.0834035 0.52883 -0.535286 0.102166 -0.163756 0.980414 0.669849 0.5815 0.488716 0.6921 0.151444 -0.302923 -0.615484 -0.245291 0.284606 0.926344 0.898743 -0.332513 0.695423 -0.97482 -0.771376 0.590021 0.450288 -0.0403799 0.347735 -0.884915 0.248267 -0.251785 0.954267 0.792013 0.587235 0.00500136 -0.679125 -0.821016 0.265831 -1.07952 -0.799766 0.559449 0.862967 0.00345091 0.185117 -0.554081 0.470514 0.501432 1.04558 0.793832 -0.0261038 0.106102 0.434625 0.712827 -0.134599 0.907708 -0.189297 -0.574834 0.921178 -0.880079 0.955538 -0.788765 0.118278 0.883534 0.556448 0.818369 -0.630254 -0.734863 0.121005 -0.958669 0.282468 0.310319 0.54913 -0.716329 -0.613558 0.934263 0.85269 0.866128 -0.64851 0.132949 0.939409 0.942023 0.680591 0.63496 -0.426912 0.569192 -0.247625 0.485953 -0.921506 -0.0262323 -0.469534 -0.981406 0.684024 0.471541 -0.0541141 -0.164242 -0.681333 0.424788 0.489079 0.381558 0.401573 0.830976 0.0543377 -0.0387953 -0.641789 -0.207972 -0.922797 -0.278789 -0.423824 -0.967047 0.350241 -0.370794 0.459196 -0.623409 0.604652 -1.00913 0.330247 0.352924 -0.802057 -0.540352 0.0208726 0.530371 0.0982156 0.407225 -0.0934929 -1.00413 -0.233712 -0.381417 0.557391 0.0319342 -0.308005 -0.0107124 1.2152 0.579837 -0.653254 -0.0227523 0.653082 0.21153 -0.354858 -0.58014 -0.418493 0.807582 0.48738 0.819619 0.107066 -0.818967 0.276882 0.236643 -0.714774 -0.18832 0.833385 0.650104 0.906924 0.280233 -0.89267 -0.677986 -0.641118 1.11729 0.732115 1.17262 0.868628 0.536793 -0.261847 -0.148412 0.43819 -0.140884 0.503245 -0.749981 -0.02433 0.355284 -0.00406536 0.976026 0.936569 -0.510705 -0.00336538 0.649251 0.777977 0.134297 -0.573718 0.120075 -0.113828 0.299286 0.00915231 0.165007 -0.551855 0.631703 -0.178695 0.191731 0.246603 -0.638225 0.560469 -0.601137 -0.812055 0.201468 0.596658 0.496772 0.308562 -0.846205 -0.176869 0.465127 -1.33992 0.243895 -0.405394 0.907121 0.550358 0.309728 0.87941 -0.413894 -0.402087 -0.934756 -1.01106 -0.538011 0.0212016 -0.819152 -1.20757 -1.04519 0.239087 0.242667 -0.390378 0.0390208 -0.469462 0.151475 0.128258 -0.593647 -0.669893 -0.0314967 0.542266 -0.0671368 0.637098 0.796461 0.151846 0.368556 -0.803121 -0.0821468 0.142455 0.210165 0.386595 -0.41578 0.225031 -0.859911 0.532169 0.18727 0.429435 0.428951 -0.514082 -0.614615 -0.732843 -0.623544 -0.218083 -0.111934 0.632665 -0.0603295 0.0352371 0.620411 0.308621 -0.506452 -0.179597 -0.554892 0.109542 -0.422695 -0.452219 -0.576765 -0.610855 0.0715689 -0.881803 0.805217 0.104575 -0.81521 0.578461 0.452451 1.01844 -0.111133 -0.567344 0.59789 0.286676 0.00782526 -0.0359163 0.881834 0.73749 0.548793 0.951298 0.220215 0.0172141 0.0790732 0.872228 0.507076 0.634466 0.743096 -0.241991 0.151693 -0.684065 0.345904 -0.68534 0.457879 -0.606727 -0.200218 -0.686773 -0.630226 -0.693627 -0.376245 0.483899 0.588466 -0.835018 -0.213749 0.944934 0.87631 0.224845 0.203729 -0.0479451 -0.226398 -0.143842 -0.972628 0.0887429 -0.971999 0.101106 -0.187976 0.690778 0.123593 -0.925511 0.667149 0.283249 0.981878 0.342631 -0.806258 0.72965 0.212795 -0.813983 0.805438 0.721966 0.990139 1.03841 0.183122 0.0438784 1.06112 0.433212 0.702405 0.696221 -0.0697815 -0.0303163 -0.41414 -0.504912 0.454683 0.839368 1.08979 0.65062 -0.607184 -0.588766 0.968617 -0.954778 -0.905457 0.033287 -0.705366 -1.03181 -0.796685 0.24655 0.548949 0.255923 0.473791 -0.457413 1.17063 0.220504 0.425554 -0.184733 0.188883 -0.0871495 0.500545 -0.117278 0.458253 1.09134 1.03233 0.563634 -0.500538 0.721674 1.06379 -0.375358 0.764434 -0.920626 -0.550802 -0.522121 0.932309 -0.118297 0.562555 0.50256 -0.185348 0.297083 0.203312 0.702778 0.85998 0.0696641 0.59097 0.0634017 -0.529581 -0.667955 0.616529 -0.303593 0.800883 -0.525949 -0.428439 -0.0442174 -0.521389 -0.688081 -0.540201 -0.286616 0.680915 0.051203 0.243435 -0.101958 -0.5435 -0.981222 -0.274501 0.67242 -0.507633 0.97455 0.448025 0.306253 0.242338 -0.493056 -0.744704 0.676851 -0.989756 0.446419 -0.752784 -0.0924344 -0.184074 1.08735 0.54149 -0.386018 -0.686802 0.504023 -1.10398 0.428603 -0.970423 -0.639668 0.43459 -0.61907 0.675797 -0.653076 0.700253 -0.635708 0.0784722 0.429521 0.633619 -0.604586 -0.964466 -0.772788 0.75946 0.513164 -0.922256 -1.0551 -0.407289 -0.215655 0.158473 0.320624 0.20864 -0.0170748 0.661336 -0.770597 -0.357564 0.0547246 0.305773 -0.566099 0.286847 -0.961955 -0.512398 0.83068 0.128346 0.427068 0.0384456 -0.250402 0.580164 -0.676017 0.599596 -0.0184494 0.806582 -0.630953 -0.865458 0.627563 -0.18375 0.920661 -0.836141 -0.968421 0.433431 -0.751823 0.178228 -1.07691 0.731071 0.425594 0.740424 -0.635728 -1.02004 0.156958 -0.235456 -0.16298 -0.00929599 0.207712 0.797087 0.795503 0.330926 0.177449 0.0705509 0.507035 0.445052 -0.39504 0.530167 -0.068149 0.00613284 -0.22322 -0.462787 -0.856746 -1.10041 -0.42217 0.00218565 -0.625675 0.516887 0.850068 -0.356432 0.248348 0.26461 -0.598046 0.348911 -0.294513 0.91439 0.183693 -0.88343 0.856737 -0.0135432 -0.10962 0.521066 0.32508 -0.823407 -0.735282 0.307886 -0.811888 0.133909 0.103193 0.828111 -0.284972 -0.775273 0.523581 0.919301 0.425496 -0.467061 -0.738933 0.450389 -0.960635 0.435567 0.434083 -0.280913 0.376006 0.795627 -0.404146 0.612678 -0.801341 -0.664823 0.736459 -0.6746 0.58453 0.193794 0.355063 -0.310383 -0.116074 0.98559 -0.275263 -0.904761 -0.983661 -0.425784 0.2095 0.349692 -0.792135 0.604621 -0.935365 0.323182 -0.792689 -0.00545404 0.35353 -0.592786 -0.214611 -0.0734149 -0.584911 0.653499 -0.28784 -0.415358 0.210955 -0.983843 -0.107327 -0.775002 0.381018 -0.424362 0.849707 0.572275 -0.783761 0.474267 0.843618 0.749245 0.342558 -0.218559 0.603806 0.398499 -0.0259041 -0.718037 0.297901 -0.681579 -0.266513 -0.542532 0.415654 0.551703 -0.893449 -0.475642 -0.417278 0.173699 -0.364745 -0.770171 0.260157 0.159541 0.637854 0.958359 -0.35433 0.999991 0.511934 -0.722987 0.385294 -0.739047 0.767768 -0.258031 -0.0171324 0.0364902 0.495645 -0.50557 0.427852 0.574598 -0.796683 0.260738 -0.127201 0.764716 -0.543681 0.36498 0.668992 -0.469267 -0.450211 -0.723016 -0.772147 -0.236311 0.150956 -0.33151 -0.134466 -0.331435 -0.824499 -0.111839 -0.16983 -0.183083 -0.417959 0.586524 -0.357054 -0.0839656 0.251935 -0.538938 0.492191 0.874407 -0.609715 0.844622 0.132132 1.15101 -0.24752 0.913678 0.375407 0.325197 -0.0269508 0.15942 1.0102 -0.613766 0.823228 -0.441716 0.353243 -0.52885 0.628337 -0.848365 0.430676 0.176613 0.241756 -0.817719 -0.22461 0.585582 0.751847 0.673904 0.249363 -0.297202 -0.845823 -0.192057 0.495147 0.428282 -0.884344 0.377231 -0.918714 0.54875 -0.827639 0.163439 